{"learner":{"attributes":{"scikit_learn":"{\"_estimator_type\": \"classifier\"}"},"feature_names":["V1","V2","V3","V4","V5","V6","V7","V8","V9","V10","V11","V12","V13","V14","V15","V16","V17","V18","V19","V20","V21","V22","V23","V24","V25","V26","V27","V28","Amount_scaled"],"feature_types":["float","float","float","float","float","float","float","float","float","float","float","float","float","float","float","float","float","float","float","float","float","float","float","float","float","float","float","float","float"],"gradient_booster":{"model":{"gbtree_model_param":{"num_parallel_tree":"1","num_trees":"800"},"iteration_indptr":[0,1,2,3,4,5,6,7,8,9,10,11,12,13,14,15,16,17,18,19,20,21,22,23,24,25,26,27,28,29,30,31,32,33,34,35,36,37,38,39,40,41,42,43,44,45,46,47,48,49,50,51,52,53,54,55,56,57,58,59,60,61,62,63,64,65,66,67,68,69,70,71,72,73,74,75,76,77,78,79,80,81,82,83,84,85,86,87,88,89,90,91,92,93,94,95,96,97,98,99,100,101,102,103,104,105,106,107,108,109,110,111,112,113,114,115,116,117,118,119,120,121,122,123,124,125,126,127,128,129,130,131,132,133,134,135,136,137,138,139,140,141,142,143,144,145,146,147,148,149,150,151,152,153,154,155,156,157,158,159,160,161,162,163,164,165,166,167,168,169,170,171,172,173,174,175,176,177,178,179,180,181,182,183,184,185,186,187,188,189,190,191,192,193,194,195,196,197,198,199,200,201,202,203,204,205,206,207,208,209,210,211,212,213,214,215,216,217,218,219,220,221,222,223,224,225,226,227,228,229,230,231,232,233,234,235,236,237,238,239,240,241,242,243,244,245,246,247,248,249,250,251,252,253,254,255,256,257,258,259,260,261,262,263,264,265,266,267,268,269,270,271,272,273,274,275,276,277,278,279,280,281,282,283,284,285,286,287,288,289,290,291,292,293,294,295,296,297,298,299,300,301,302,303,304,305,306,307,308,309,310,311,312,313,314,315,316,317,318,319,320,321,322,323,324,325,326,327,328,329,330,331,332,333,334,335,336,337,338,339,340,341,342,343,344,345,346,347,348,349,350,351,352,353,354,355,356,357,358,359,360,361,362,363,364,365,366,367,368,369,370,371,372,373,374,375,376,377,378,379,380,381,382,383,384,385,386,387,388,389,390,391,392,393,394,395,396,397,398,399,400,401,402,403,404,405,406,407,408,409,410,411,412,413,414,415,416,417,418,419,420,421,422,423,424,425,426,427,428,429,430,431,432,433,434,435,436,437,438,439,440,441,442,443,444,445,446,447,448,449,450,451,452,453,454,455,456,457,458,459,460,461,462,463,464,465,466,467,468,469,470,471,472,473,474,475,476,477,478,479,480,481,482,483,484,485,486,487,488,489,490,491,492,493,494,495,496,497,498,499,500,501,502,503,504,505,506,507,508,509,510,511,512,513,514,515,516,517,518,519,520,521,522,523,524,525,526,527,528,529,530,531,532,533,534,535,536,537,538,539,540,541,542,543,544,545,546,547,548,549,550,551,552,553,554,555,556,557,558,559,560,561,562,563,564,565,566,567,568,569,570,571,572,573,574,575,576,577,578,579,580,581,582,583,584,585,586,587,588,589,590,591,592,593,594,595,596,597,598,599,600,601,602,603,604,605,606,607,608,609,610,611,612,613,614,615,616,617,618,619,620,621,622,623,624,625,626,627,628,629,630,631,632,633,634,635,636,637,638,639,640,641,642,643,644,645,646,647,648,649,650,651,652,653,654,655,656,657,658,659,660,661,662,663,664,665,666,667,668,669,670,671,672,673,674,675,676,677,678,679,680,681,682,683,684,685,686,687,688,689,690,691,692,693,694,695,696,697,698,699,700,701,702,703,704,705,706,707,708,709,710,711,712,713,714,715,716,717,718,719,720,721,722,723,724,725,726,727,728,729,730,731,732,733,734,735,736,737,738,739,740,741,742,743,744,745,746,747,748,749,750,751,752,753,754,755,756,757,758,759,760,761,762,763,764,765,766,767,768,769,770,771,772,773,774,775,776,777,778,779,780,781,782,783,784,785,786,787,788,789,790,791,792,793,794,795,796,797,798,799,800],"tree_info":[0,0,0,0,0,0,0,0,0,0,0,0,0,0,0,0,0,0,0,0,0,0,0,0,0,0,0,0,0,0,0,0,0,0,0,0,0,0,0,0,0,0,0,0,0,0,0,0,0,0,0,0,0,0,0,0,0,0,0,0,0,0,0,0,0,0,0,0,0,0,0,0,0,0,0,0,0,0,0,0,0,0,0,0,0,0,0,0,0,0,0,0,0,0,0,0,0,0,0,0,0,0,0,0,0,0,0,0,0,0,0,0,0,0,0,0,0,0,0,0,0,0,0,0,0,0,0,0,0,0,0,0,0,0,0,0,0,0,0,0,0,0,0,0,0,0,0,0,0,0,0,0,0,0,0,0,0,0,0,0,0,0,0,0,0,0,0,0,0,0,0,0,0,0,0,0,0,0,0,0,0,0,0,0,0,0,0,0,0,0,0,0,0,0,0,0,0,0,0,0,0,0,0,0,0,0,0,0,0,0,0,0,0,0,0,0,0,0,0,0,0,0,0,0,0,0,0,0,0,0,0,0,0,0,0,0,0,0,0,0,0,0,0,0,0,0,0,0,0,0,0,0,0,0,0,0,0,0,0,0,0,0,0,0,0,0,0,0,0,0,0,0,0,0,0,0,0,0,0,0,0,0,0,0,0,0,0,0,0,0,0,0,0,0,0,0,0,0,0,0,0,0,0,0,0,0,0,0,0,0,0,0,0,0,0,0,0,0,0,0,0,0,0,0,0,0,0,0,0,0,0,0,0,0,0,0,0,0,0,0,0,0,0,0,0,0,0,0,0,0,0,0,0,0,0,0,0,0,0,0,0,0,0,0,0,0,0,0,0,0,0,0,0,0,0,0,0,0,0,0,0,0,0,0,0,0,0,0,0,0,0,0,0,0,0,0,0,0,0,0,0,0,0,0,0,0,0,0,0,0,0,0,0,0,0,0,0,0,0,0,0,0,0,0,0,0,0,0,0,0,0,0,0,0,0,0,0,0,0,0,0,0,0,0,0,0,0,0,0,0,0,0,0,0,0,0,0,0,0,0,0,0,0,0,0,0,0,0,0,0,0,0,0,0,0,0,0,0,0,0,0,0,0,0,0,0,0,0,0,0,0,0,0,0,0,0,0,0,0,0,0,0,0,0,0,0,0,0,0,0,0,0,0,0,0,0,0,0,0,0,0,0,0,0,0,0,0,0,0,0,0,0,0,0,0,0,0,0,0,0,0,0,0,0,0,0,0,0,0,0,0,0,0,0,0,0,0,0,0,0,0,0,0,0,0,0,0,0,0,0,0,0,0,0,0,0,0,0,0,0,0,0,0,0,0,0,0,0,0,0,0,0,0,0,0,0,0,0,0,0,0,0,0,0,0,0,0,0,0,0,0,0,0,0,0,0,0,0,0,0,0,0,0,0,0,0,0,0,0,0,0,0,0,0,0,0,0,0,0,0,0,0,0,0,0,0,0,0,0,0,0,0,0,0,0,0,0,0,0,0,0,0,0,0,0,0,0,0,0,0,0,0,0,0,0,0,0,0,0,0,0,0,0,0,0,0,0,0,0,0,0,0,0,0,0,0,0,0,0,0,0,0,0,0,0,0,0,0,0,0,0,0,0,0,0,0,0,0,0,0,0,0,0,0,0,0,0,0,0,0,0,0,0,0,0,0,0,0,0,0,0,0,0,0,0,0,0,0,0,0,0,0,0,0,0,0,0,0,0,0,0,0,0,0,0,0,0,0,0,0,0,0,0,0,0,0,0,0,0,0,0,0,0,0,0,0,0,0,0,0,0,0,0,0,0,0,0,0,0,0],"trees":[{"base_weights":[2.8792331E-2,1.8694209E0,-1.5011191E0,1.9911677E0,7.9420596E-1,-1.7624736E0,-2.3236834E-1,1.9940872E0,-1.92E-1,-1.7754804E-1,1.809771E0,-1.8215563E0,6.624991E-1,1.3599877E0,-7.0460457E-1,-1.8333334E-1,1.9954267E-1,5.489235E-2,-1.9963168E-1,-1.9473684E-1,1.8888801E-1,-1.8812156E-1,-5.204272E-2,1.5135203E-1,-1.9905326E-1,1.6585295E-1,-1.9858406E-1,-1.583088E-1,1.0211747E-2],"categories":[],"categories_nodes":[],"categories_segments":[],"categories_sizes":[],"default_left":[0,0,0,0,0,0,0,0,0,0,0,0,0,0,0,0,0,0,0,0,0,0,0,0,0,0,0,0,0],"id":0,"left_children":[1,3,5,7,9,11,13,15,-1,17,19,21,23,25,27,-1,-1,-1,-1,-1,-1,-1,-1,-1,-1,-1,-1,-1,-1],"loss_changes":[2.2676897E5,4.783297E3,1.4581844E4,3.7875E2,3.6710596E3,5.225633E3,5.650232E3,1.71875E2,0E0,2.513755E3,5.442881E2,2.7622656E3,1.9628541E3,1.7200671E3,4.1069834E3,0E0,0E0,0E0,0E0,0E0,0E0,0E0,0E0,0E0,0E0,0E0,0E0,0E0,0E0],"parents":[2147483647,0,0,1,1,2,2,3,3,4,4,5,5,6,6,7,7,9,9,10,10,11,11,12,12,13,13,14,14],"right_children":[2,4,6,8,10,12,14,16,-1,18,20,22,24,26,28,-1,-1,-1,-1,-1,-1,-1,-1,-1,-1,-1,-1,-1,-1],"split_conditions":[-1.7859976E0,-1.4160796E0,1.3935225E0,5.767415E-1,1.8959074E0,2.4990346E0,-9.713499E-1,-5.110954E-1,-1.92E-1,-1.1814422E-1,-3.9261013E-1,6.777285E-1,-3.3360067E-1,-1.5558755E-1,3.6752635E-1,-1.8333334E-1,1.9954267E-1,5.489235E-2,-1.9963168E-1,-1.9473684E-1,1.8888801E-1,-1.8812156E-1,-5.204272E-2,1.5135203E-1,-1.9905326E-1,1.6585295E-1,-1.9858406E-1,-1.583088E-1,1.0211747E-2],"split_indices":[13,11,3,9,3,6,13,3,0,25,20,20,25,9,21,0,0,0,0,0,0,0,0,0,0,0,0,0,0],"split_type":[0,0,0,0,0,0,0,0,0,0,0,0,0,0,0,0,0,0,0,0,0,0,0,0,0,0,0,0,0],"sum_hessian":[8.052679E4,3.6551566E4,4.3975227E4,3.2833027E4,3.7185405E3,3.6463574E4,7.511649E3,3.2809027E4,2.4E1,1.9006802E3,1.8178604E3,3.559654E4,8.670368E2,1.717717E3,5.793932E3,1.1E1,3.2798027E4,1.3586802E3,5.42E2,3.7E1,1.7808604E3,3.40355E4,1.5610369E3,6.567868E2,2.1025E2,1.577467E3,1.4025E2,2.7731433E3,3.0207888E3],"tree_param":{"num_deleted":"0","num_feature":"29","num_nodes":"29","size_leaf_vector":"1"}},{"base_weights":[6.65733E-2,1.7066991E0,-1.2933192E0,1.7348993E0,-1.938602E-1,-1.5408441E0,-1.2253291E-1,1.8134687E0,1.0902689E0,1.2874846E-1,-1.5932733E0,8.6589885E-1,-1.171824E0,-1.9141011E-1,1.8159524E-1,1.2549464E-1,-1.8141727E-1,-1.8706404E-1,1.4478482E-1,-1.7141768E-1,-1.0443578E-1,1.10197164E-1,-1.9011268E-1,9.541742E-2,-1.7211054E-1],"categories":[],"categories_nodes":[],"categories_segments":[],"categories_sizes":[],"default_left":[0,0,0,0,0,0,0,0,0,0,0,0,0,0,0,0,0,0,0,0,0,0,0,0,0],"id":1,"left_children":[1,3,5,7,-1,9,11,13,15,17,19,21,23,-1,-1,-1,-1,-1,-1,-1,-1,-1,-1,-1,-1],"loss_changes":[1.823019E5,3.8120469E3,1.2949508E4,1.8601641E3,0E0,3.2290781E3,8.0903604E3,3.0685156E2,1.9139512E3,2.9670986E3,2.3716875E3,2.6259683E3,4.420185E3,0E0,0E0,0E0,0E0,0E0,0E0,0E0,0E0,0E0,0E0,0E0,0E0],"parents":[2147483647,0,0,1,1,2,2,3,3,5,5,6,6,7,7,8,8,9,9,10,10,11,11,12,12],"right_children":[2,4,6,8,-1,10,12,14,16,18,20,22,24,-1,-1,-1,-1,-1,-1,-1,-1,-1,-1,-1,-1],"split_conditions":[-1.7859976E0,5.472968E-1,1.3935225E0,-1.4160796E0,-1.938602E-1,-9.853448E-1,-4.480329E-1,9.191876E-2,4.7627756E-1,-2.027623E0,7.413282E-1,1.2427965E0,-1.5825396E0,-1.9141011E-1,1.8159524E-1,1.2549464E-1,-1.8141727E-1,-1.8706404E-1,1.4478482E-1,-1.7141768E-1,-1.0443578E-1,1.10197164E-1,-1.9011268E-1,9.541742E-2,-1.7211054E-1],"split_indices":[13,9,3,11,0,19,11,10,25,0,3,12,6,0,0,0,0,0,0,0,0,0,0,0,0],"split_type":[0,0,0,0,0,0,0,0,0,0,0,0,0,0,0,0,0,0,0,0,0,0,0,0,0],"sum_hessian":[8.173327E4,3.704915E4,4.468413E4,3.6765254E4,2.8389267E2,3.6885555E4,7.798572E3,3.276941E4,3.995844E3,1.122985E3,3.576257E4,4.0158333E3,3.7827388E3,2.1305788E1,3.2748105E4,3.7819795E3,2.1386469E2,4.4622055E2,6.7676447E2,2.9305625E4,6.4569463E3,3.700704E3,3.1512912E2,7.7651086E2,3.0062278E3],"tree_param":{"num_deleted":"0","num_feature":"29","num_nodes":"25","size_leaf_vector":"1"}},{"base_weights":[2.219293E-2,1.5733005E0,-1.252041E0,-1.8634875E0,1.5999666E0,-1.4467438E0,-5.4830056E-2,-1.9829644E-1,-1.7532378E-1,1.6791761E0,9.2654717E-1,2.902349E-1,-1.508021E0,1.211785E0,-8.27162E-1,1.6804916E-1,-1.5534358E-1,1.13290764E-1,-1.7299698E-1,1.16261624E-1,-1.7760776E-1,-1.5491034E-1,6.310086E-2,1.4113262E-1,-1.7969242E-1,2.1552999E-2,-1.8342297E-1],"categories":[],"categories_nodes":[],"categories_segments":[],"categories_sizes":[],"default_left":[0,0,0,0,0,0,0,0,0,0,0,0,0,0,0,0,0,0,0,0,0,0,0,0,0,0,0],"id":2,"left_children":[1,3,5,7,9,11,13,-1,-1,15,17,19,21,23,25,-1,-1,-1,-1,-1,-1,-1,-1,-1,-1,-1,-1],"loss_changes":[1.549273E5,3.2428672E3,1.0031086E4,1.14746094E-1,1.8696719E3,3.9400938E3,5.890678E3,0E0,0E0,1.3607031E2,2.0271355E3,2.2771829E3,3.1428203E3,1.3719377E3,3.9283367E3,0E0,0E0,0E0,0E0,0E0,0E0,0E0,0E0,0E0,0E0,0E0,0E0],"parents":[2147483647,0,0,1,1,2,2,3,3,4,4,5,5,6,6,9,9,10,10,11,11,12,12,13,13,14,14],"right_children":[2,4,6,8,10,12,14,-1,-1,16,18,20,22,24,26,-1,-1,-1,-1,-1,-1,-1,-1,-1,-1,-1,-1],"split_conditions":[-1.7859976E0,-7.610427E-1,1.620582E0,-1.1365787E-1,-1.4160796E0,-9.853448E-1,-3.435655E-1,-1.9829644E-1,-1.7532378E-1,5.767415E-1,1.9274713E-1,-7.4986964E-2,2.4990346E0,5.5929226E-1,1.06149286E-1,1.6804916E-1,-1.5534358E-1,1.13290764E-1,-1.7299698E-1,1.16261624E-1,-1.7760776E-1,-1.5491034E-1,6.310086E-2,1.4113262E-1,-1.7969242E-1,2.1552999E-2,-1.8342297E-1],"split_indices":[13,3,3,25,11,19,7,0,0,9,25,11,6,20,5,0,0,0,0,0,0,0,0,0,0,0,0],"split_type":[0,0,0,0,0,0,0,0,0,0,0,0,0,0,0,0,0,0,0,0,0,0,0,0,0,0,0],"sum_hessian":[7.838371E4,3.5351086E4,4.303263E4,2.7164822E2,3.5079438E4,3.7012984E4,6.019641E3,1.222167E2,1.4943152E2,3.1386209E4,3.693228E3,1.2611227E3,3.5751863E4,2.2799622E3,3.739679E3,3.1373924E4,1.2286952E1,3.4275469E3,2.6568112E2,8.8705304E2,3.7406964E2,3.5078418E4,6.7344446E2,2.1386548E3,1.4130719E2,1.8377281E3,1.9019509E3],"tree_param":{"num_deleted":"0","num_feature":"29","num_nodes":"27","size_leaf_vector":"1"}},{"base_weights":[-2.103491E-2,1.3892504E0,-1.3034612E0,-3.1166077E-1,1.5272288E0,5.710735E-1,-1.3937973E0,1.4691268E0,-1.1274726E0,1.5476933E0,-4.3249264E-1,1.3778999E0,-1.7033736E-1,-1.4740885E0,-1.7196336E-1,1.5678212E-1,-1.6151798E-1,-1.720733E-1,9.860348E-2,1.5564902E-1,-1.782906E-1,1.6567607E-1,-1.8953079E-1,-1.8886103E-1,1.6325484E-1,-1.0454132E-1,-1.5439658E-1,1.0199113E-1,-1.774417E-1],"categories":[],"categories_nodes":[],"categories_segments":[],"categories_sizes":[],"default_left":[0,0,0,0,0,0,0,0,0,0,0,0,0,0,0,0,0,0,0,0,0,0,0,0,0,0,0,0,0],"id":3,"left_children":[1,3,5,7,9,11,13,15,17,19,21,23,-1,25,27,-1,-1,-1,-1,-1,-1,-1,-1,-1,-1,-1,-1,-1,-1],"loss_changes":[1.3387114E5,8.273859E3,6.5655703E3,3.8456658E3,1.3083828E3,3.2744036E3,3.628086E3,2.5572107E2,2.2777058E3,9.4828125E2,1.0354236E3,1.0983447E3,0E0,1.0379453E3,4.3596787E3,0E0,0E0,0E0,0E0,0E0,0E0,0E0,0E0,0E0,0E0,0E0,0E0,0E0,0E0],"parents":[2147483647,0,0,1,1,2,2,3,3,4,4,5,5,6,6,7,7,8,8,9,9,10,10,11,11,13,13,14,14],"right_children":[2,4,6,8,10,12,14,16,18,20,22,24,-1,26,28,-1,-1,-1,-1,-1,-1,-1,-1,-1,-1,-1,-1,-1,-1],"split_conditions":[-1.3363411E0,7.754518E-1,-9.853448E-1,-1.618082E0,2.5895795E-1,-2.305469E-1,2.8410146E0,-2.2186575E0,2.0870185E0,5.767415E-1,-7.338462E0,4.331174E-2,-1.7033736E-1,-6.485516E-1,-3.2324374E-1,1.5678212E-1,-1.6151798E-1,-1.720733E-1,9.860348E-2,1.5564902E-1,-1.782906E-1,1.6567607E-1,-1.8953079E-1,-1.8886103E-1,1.6325484E-1,-1.0454132E-1,-1.5439658E-1,1.0199113E-1,-1.774417E-1],"split_indices":[13,3,19,11,11,11,3,9,0,9,7,3,0,13,28,0,0,0,0,0,0,0,0,0,0,0,0,0,0],"split_type":[0,0,0,0,0,0,0,0,0,0,0,0,0,0,0,0,0,0,0,0,0,0,0,0,0,0,0,0,0],"sum_hessian":[7.401774E4,3.5251523E4,3.8766215E4,2.644954E3,3.260657E4,1.7820554E3,3.698416E4,8.3075256E2,1.8142015E3,3.2269803E4,3.367679E2,1.3157181E3,4.663373E2,3.470346E4,2.2806978E3,8.054701E2,2.5282478E1,1.416716E3,3.9748557E2,3.2185326E4,8.447605E1,1.3863339E2,1.9813454E2,9.468804E1,1.22103E3,4.8662817E3,2.983718E4,1.3081122E3,9.725855E2],"tree_param":{"num_deleted":"0","num_feature":"29","num_nodes":"29","size_leaf_vector":"1"}},{"base_weights":[-2.7271058E-2,1.3618242E0,-1.1913491E0,-1.1797129E0,1.4285274E0,-1.2960047E0,8.73759E-2,1.4438894E0,-1.6705278E0,1.4432845E0,-1.7833017E0,-1.3704123E0,-2.6693303E-2,8.954216E-1,-1.1760471E0,1.4820275E-1,-1.22409225E-1,-1.7625527E-1,-1.5451808E-1,1.4548814E-1,-1.6791223E-1,-1.9959174E-1,-1.5719084E-1,-1.3988517E-1,8.037472E-2,1.7609026E-1,-1.22433566E-1,1.2689035E-1,-1.75765E-1,1.3059023E-1,-1.6733947E-1],"categories":[],"categories_nodes":[],"categories_segments":[],"categories_sizes":[],"default_left":[0,0,0,0,0,0,0,0,0,0,0,0,0,0,0,0,0,0,0,0,0,0,0,0,0,0,0,0,0,0,0],"id":4,"left_children":[1,3,5,7,9,11,13,15,17,19,21,23,25,27,29,-1,-1,-1,-1,-1,-1,-1,-1,-1,-1,-1,-1,-1,-1,-1,-1],"loss_changes":[1.13951086E5,5.448578E3,5.1310273E3,1.0612026E3,1.4865195E3,3.3471367E3,2.963162E3,1.5053619E1,5.2717285E0,1.130957E3,3.318634E0,2.0710938E3,4.2057783E3,1.7562899E3,1.3998167E3,0E0,0E0,0E0,0E0,0E0,0E0,0E0,0E0,0E0,0E0,0E0,0E0,0E0,0E0,0E0,0E0],"parents":[2147483647,0,0,1,1,2,2,3,3,4,4,5,5,6,6,7,7,8,8,9,9,10,10,11,11,12,12,13,13,14,14],"right_children":[2,4,6,8,10,12,14,16,18,20,22,24,26,28,30,-1,-1,-1,-1,-1,-1,-1,-1,-1,-1,-1,-1,-1,-1,-1,-1],"split_conditions":[-1.6081004E0,7.986521E-2,2.7407496E0,-3.5256164E0,1.9941158E0,6.777285E-1,-8.645241E-3,-4.055838E0,-2.3048876E-2,5.767415E-1,-2.3048876E-2,3.0202103E0,-1.3385137E0,4.2283344E-1,-2.4690466E0,1.4820275E-1,-1.22409225E-1,-1.7625527E-1,-1.5451808E-1,1.4548814E-1,-1.6791223E-1,-1.9959174E-1,-1.5719084E-1,-1.3988517E-1,8.037472E-2,1.7609026E-1,-1.22433566E-1,1.2689035E-1,-1.75765E-1,1.3059023E-1,-1.6733947E-1],"split_indices":[13,3,3,11,0,20,7,0,25,9,25,6,12,15,14,0,0,0,0,0,0,0,0,0,0,0,0,0,0,0,0],"split_type":[0,0,0,0,0,0,0,0,0,0,0,0,0,0,0,0,0,0,0,0,0,0,0,0,0,0,0,0,0,0,0],"sum_hessian":[7.0468E4,3.2128668E4,3.8339332E4,8.212318E2,3.1307436E4,3.5438875E4,2.900458E3,1.2911559E2,6.921162E2,3.1164795E4,1.4264043E2,3.347639E4,1.962483E3,1.769215E3,1.1312432E3,1.2773418E2,1.3814101E0,3.9157565E2,3.0054056E2,3.1050008E4,1.1478783E2,6.6905914E1,7.5734505E1,3.3044504E4,4.3188702E2,7.8713635E2,1.1753467E3,1.5513481E3,2.1786676E2,1.8857216E2,9.4267096E2],"tree_param":{"num_deleted":"0","num_feature":"29","num_nodes":"31","size_leaf_vector":"1"}},{"base_weights":[2.478023E-2,1.2527535E0,-1.0570138E0,1.3639145E0,-3.0553892E-1,6.9139296E-1,-1.1576552E0,-1.4930218E-1,1.3905838E0,-1.2943012E0,1.2895277E0,1.3282024E0,-1.5372644E-1,-1.2067908E0,1.5224524E0,1.4002964E-1,-1.5656522E-1,-1.66144E-1,6.449684E-2,-1.6763364E-1,1.421142E-1,-1.6678715E-1,1.521159E-1,-1.2825046E-1,-2.8086444E-2,1.8150482E-1,-1.648285E-1],"categories":[],"categories_nodes":[],"categories_segments":[],"categories_sizes":[],"default_left":[0,0,0,0,0,0,0,0,0,0,0,0,0,0,0,0,0,0,0,0,0,0,0,0,0,0,0],"id":5,"left_children":[1,3,5,7,9,11,13,-1,15,17,19,21,-1,23,25,-1,-1,-1,-1,-1,-1,-1,-1,-1,-1,-1,-1],"loss_changes":[9.188067E4,5.6117734E3,6.471199E3,2.3059375E3,3.4048096E3,2.8434185E3,4.580711E3,0E0,8.62375E2,9.498296E2,3.2490112E2,9.030408E2,0E0,2.3933906E3,5.8415625E2,0E0,0E0,0E0,0E0,0E0,0E0,0E0,0E0,0E0,0E0,0E0,0E0],"parents":[2147483647,0,0,1,1,2,2,3,3,4,4,5,5,6,6,8,8,9,9,10,10,11,11,13,13,14,14],"right_children":[2,4,6,8,10,12,14,-1,16,18,20,22,-1,24,26,-1,-1,-1,-1,-1,-1,-1,-1,-1,-1,-1,-1],"split_conditions":[-1.3363411E0,-2.761215E-1,-9.853448E-1,-7.610427E-1,2.0353515E0,-2.305469E-1,4.77456E0,-1.4930218E-1,5.767415E-1,1.3527975E0,5.516217E-1,4.331174E-2,-1.5372644E-1,1.278442E0,1.1073376E-2,1.4002964E-1,-1.5656522E-1,-1.66144E-1,6.449684E-2,-1.6763364E-1,1.421142E-1,-1.6678715E-1,1.521159E-1,-1.2825046E-1,-2.8086444E-2,1.8150482E-1,-1.648285E-1],"split_indices":[13,11,19,3,3,11,3,0,9,12,17,3,0,6,25,0,0,0,0,0,0,0,0,0,0,0,0],"split_type":[0,0,0,0,0,0,0,0,0,0,0,0,0,0,0,0,0,0,0,0,0,0,0,0,0,0,0],"sum_hessian":[6.916369E4,3.2393172E4,3.6770516E4,3.0236383E4,2.15679E3,2.001055E3,3.476946E4,2.7913547E2,2.9957246E4,1.3315605E3,8.252295E2,1.5566631E3,4.4439194E2,3.414403E4,6.254276E2,2.985967E4,9.757613E1,1.1197205E3,2.118401E2,3.456596E1,7.906636E2,9.372545E1,1.4629376E3,3.1562734E4,2.5812979E3,5.729805E2,5.2447086E1],"tree_param":{"num_deleted":"0","num_feature":"29","num_nodes":"27","size_leaf_vector":"1"}},{"base_weights":[3.0877994E-2,1.208123E0,-1.0342777E0,-2.9619086E-1,1.297613E0,-1.1924831E0,-3.4815297E-2,1.1462635E0,-1.0977322E0,1.3121868E0,-1.6183245E0,-1.245597E0,1.20508E-1,-9.9045885E-1,1.0225326E0,1.6130447E-1,-1.6183768E-1,-1.4814608E-1,4.2868096E-2,1.3239238E-1,-1.484644E-1,-1.7999236E-1,-1.4504516E-1,-2.5482435E-2,-1.3121517E-1,1.7614324E-1,-9.9756554E-2,6.2195778E-2,-1.5481071E-1,1.3518272E-1,-4.356499E-2],"categories":[],"categories_nodes":[],"categories_segments":[],"categories_sizes":[],"default_left":[0,0,0,0,0,0,0,0,0,0,0,0,0,0,0,0,0,0,0,0,0,0,0,0,0,0,0,0,0,0,0],"id":6,"left_children":[1,3,5,7,9,11,13,15,17,19,21,23,25,27,29,-1,-1,-1,-1,-1,-1,-1,-1,-1,-1,-1,-1,-1,-1,-1,-1],"loss_changes":[8.291756E4,4.228824E3,5.4891445E3,2.0412794E3,1.2619844E3,2.0902734E3,4.7957607E3,8.16564E2,6.6526294E2,9.703242E2,1.8976135E0,1.8991484E3,2.1413218E3,2.2425425E3,1.0825144E3,0E0,0E0,0E0,0E0,0E0,0E0,0E0,0E0,0E0,0E0,0E0,0E0,0E0,0E0,0E0,0E0],"parents":[2147483647,0,0,1,1,2,2,3,3,4,4,5,5,6,6,7,7,8,8,9,9,10,10,11,11,12,12,13,13,14,14],"right_children":[2,4,6,8,10,12,14,16,18,20,22,24,26,28,30,-1,-1,-1,-1,-1,-1,-1,-1,-1,-1,-1,-1,-1,-1,-1,-1],"split_conditions":[-1.3363411E0,3.7293696E-1,1.6710995E0,-1.6016932E0,1.9941158E0,2.117188E0,5.0019497E-1,1.4806494E-1,1.8243738E0,5.767415E-1,3.1120643E-1,-9.9395156E-1,-1.3385137E0,-2.755984E0,2.1421788E-2,1.6130447E-1,-1.6183768E-1,-1.4814608E-1,4.2868096E-2,1.3239238E-1,-1.484644E-1,-1.7999236E-1,-1.4504516E-1,-2.5482435E-2,-1.3121517E-1,1.7614324E-1,-9.9756554E-2,6.2195778E-2,-1.5481071E-1,1.3518272E-1,-4.356499E-2],"split_indices":[13,3,3,9,0,28,10,15,15,9,25,13,12,0,26,0,0,0,0,0,0,0,0,0,0,0,0,0,0,0,0],"split_type":[0,0,0,0,0,0,0,0,0,0,0,0,0,0,0,0,0,0,0,0,0,0,0,0,0,0,0,0,0,0,0],"sum_hessian":[6.612314E4,3.1408883E4,3.471426E4,1.7634393E3,2.9645443E4,2.9970088E4,4.744172E3,6.297359E2,1.1337034E3,2.949856E4,1.4688354E2,2.8804906E4,1.1651823E3,2.4919666E3,2.2522056E3,5.3912646E2,9.060945E1,9.059771E2,2.2772629E2,2.937581E4,1.2274895E2,6.588718E1,8.099636E1,1.8134617E3,2.6991443E4,4.719525E2,6.9322974E2,6.4033875E2,1.8516277E3,1.8373567E3,4.1484888E2],"tree_param":{"num_deleted":"0","num_feature":"29","num_nodes":"31","size_leaf_vector":"1"}},{"base_weights":[4.1742668E-2,1.1669261E0,-9.841861E-1,-6.452433E-1,1.2409024E0,-1.1173576E0,3.454736E-1,-1.440033E0,6.473408E-1,1.2555925E0,-1.5739533E0,3.9129978E-1,-1.179792E0,1.1292928E0,-7.047282E-1,-1.4082235E-1,-1.6800009E-1,-1.3759686E-1,1.3379662E-1,1.3250087E-1,8.553874E-2,-1.667776E-1,-1.3940021E-1,1.084386E-1,-1.3984974E-1,7.90047E-2,-1.2119859E-1,1.505451E-1,-4.489551E-2,-1.4682251E-1,7.253178E-2],"categories":[],"categories_nodes":[],"categories_segments":[],"categories_sizes":[],"default_left":[0,0,0,0,0,0,0,0,0,0,0,0,0,0,0,0,0,0,0,0,0,0,0,0,0,0,0,0,0,0,0],"id":7,"left_children":[1,3,5,7,9,11,13,15,17,19,21,23,25,27,29,-1,-1,-1,-1,-1,-1,-1,-1,-1,-1,-1,-1,-1,-1,-1,-1],"loss_changes":[7.292793E4,4.0400273E3,5.8518613E3,1.2156561E3,1.1990312E3,2.8297656E3,2.477817E3,3.2254639E0,6.319103E2,7.989336E2,2.2009277E-1,1.4831847E3,1.8301484E3,1.02385596E3,1.4058756E3,0E0,0E0,0E0,0E0,0E0,0E0,0E0,0E0,0E0,0E0,0E0,0E0,0E0,0E0,0E0,0E0],"parents":[2147483647,0,0,1,1,2,2,3,3,4,4,5,5,6,6,7,7,8,8,9,9,10,10,11,11,12,12,13,13,14,14],"right_children":[2,4,6,8,10,12,14,16,18,20,22,24,26,28,30,-1,-1,-1,-1,-1,-1,-1,-1,-1,-1,-1,-1,-1,-1,-1,-1],"split_conditions":[-1.3363411E0,-7.530355E-2,2.7407496E0,1.4104919E-1,7.681329E-1,-9.853448E-1,-1.1611094E-1,2.0303946E0,-1.5004517E-1,-3.6156354E0,5.767415E-1,-7.4986964E-2,-2.1597652E0,1.1034746E0,9.702027E-1,-1.4082235E-1,-1.6800009E-1,-1.3759686E-1,1.3379662E-1,1.3250087E-1,8.553874E-2,-1.667776E-1,-1.3940021E-1,1.084386E-1,-1.3984974E-1,7.90047E-2,-1.2119859E-1,1.505451E-1,-4.489551E-2,-1.4682251E-1,7.253178E-2],"split_indices":[13,3,3,22,2,19,7,0,0,13,9,11,18,9,13,0,0,0,0,0,0,0,0,0,0,0,0,0,0,0,0],"split_type":[0,0,0,0,0,0,0,0,0,0,0,0,0,0,0,0,0,0,0,0,0,0,0,0,0,0,0,0,0,0,0],"sum_hessian":[6.3174176E4,3.0129559E4,3.3044617E4,1.1814056E3,2.8948154E4,3.0036484E4,3.0081304E3,7.3150226E2,4.4990335E2,2.8798416E4,1.4973767E2,1.1934277E3,2.8843057E4,1.7224801E3,1.2856501E3,6.519501E2,7.955215E1,1.1423611E2,3.3566724E2,2.4539664E4,4.2587515E3,9.298782E1,5.6749844E1,8.6057166E2,3.328561E2,4.6343372E2,2.8379623E4,1.3909972E3,3.3148288E2,8.381421E2,4.475081E2],"tree_param":{"num_deleted":"0","num_feature":"29","num_nodes":"31","size_leaf_vector":"1"}},{"base_weights":[2.9708507E-2,9.808951E-1,-1.0259051E0,-1.0376105E0,1.1341814E0,-1.179368E0,-6.136238E-2,-1.3627261E0,4.579709E-1,1.2659918E0,9.192949E-2,-1.2007371E0,4.9188134E-1,1.0709198E0,-8.571103E-1,-1.4564285E-1,-1.3423868E-1,1.4235578E-1,-1.352332E-1,-2.952796E-2,1.2853603E-1,-1.7244201E-2,2.9993337E-1,-1.2196537E-1,6.546068E-2,-1.318688E-1,2.5906932E-1,1.4049344E-1,-1.5654336E-1,-1.4427155E-1,2.4254281E-2],"categories":[],"categories_nodes":[],"categories_segments":[],"categories_sizes":[],"default_left":[0,0,0,0,0,0,0,0,0,0,0,0,0,0,0,0,0,0,0,0,0,0,0,0,0,0,0,0,0,0,0],"id":8,"left_children":[1,3,5,7,9,11,13,15,17,19,21,23,25,27,29,-1,-1,-1,-1,-1,-1,-1,-1,-1,-1,-1,-1,-1,-1,-1,-1],"loss_changes":[5.852856E4,9.488219E3,4.0895586E3,1.053156E3,3.9149492E3,8.5185547E2,3.4188965E3,1.4343262E0,6.7889655E2,7.6539844E2,2.4605542E3,8.268125E2,1.1496547E3,1.3812906E3,1.4353403E3,0E0,0E0,0E0,0E0,0E0,0E0,0E0,0E0,0E0,0E0,0E0,0E0,0E0,0E0,0E0,0E0],"parents":[2147483647,0,0,1,1,2,2,3,3,4,4,5,5,6,6,7,7,8,8,9,9,10,10,11,11,12,12,13,13,14,14],"right_children":[2,4,6,8,10,12,14,16,18,20,22,24,26,28,30,-1,-1,-1,-1,-1,-1,-1,-1,-1,-1,-1,-1,-1,-1,-1,-1],"split_conditions":[-8.069166E-1,-2.9450953E-1,1.7272661E0,1.327541E0,-2.761215E-1,2.0099978E0,-3.3727702E-1,-1.7859976E0,-1.0690001E0,-6.907792E-1,-8.2587683E-1,1.7888348E0,1.2451168E0,9.5848304E-1,7.793231E-1,-1.4564285E-1,-1.3423868E-1,1.4235578E-1,-1.352332E-1,-2.952796E-2,1.2853603E-1,-1.7244201E-2,2.9993337E-1,-1.2196537E-1,6.546068E-2,-1.318688E-1,2.5906932E-1,1.4049344E-1,-1.5654336E-1,-1.4427155E-1,2.4254281E-2],"split_indices":[13,3,3,10,11,14,28,13,6,10,13,21,6,9,6,0,0,0,0,0,0,0,0,0,0,0,0,0,0,0,0],"split_type":[0,0,0,0,0,0,0,0,0,0,0,0,0,0,0,0,0,0,0,0,0,0,0,0,0,0,0,0,0,0,0],"sum_hessian":[5.8288406E4,3.0660805E4,2.7627604E4,2.163649E3,2.8497156E4,2.3835111E4,3.7924917E3,1.7773666E3,3.8628235E2,2.5297629E4,3.1995283E3,2.3534473E4,3.0063812E2,1.5651168E3,2.227375E3,3.0440228E2,1.4729642E3,2.5205423E2,1.3422812E2,3.0981116E2,2.4987816E4,2.933706E3,2.6582245E2,2.3297283E4,2.3718932E2,1.6160179E2,1.3903633E2,1.3895358E3,1.7558107E2,1.4531877E3,7.741872E2],"tree_param":{"num_deleted":"0","num_feature":"29","num_nodes":"31","size_leaf_vector":"1"}},{"base_weights":[-5.0409112E-2,1.1221434E0,-8.473246E-1,1.247561E0,2.1505009E-1,-1.0769553E0,7.971019E-2,-1.3431813E-1,1.2510878E0,-8.195722E-1,1.0952202E0,5.30887E-1,-1.1503252E0,7.451432E-1,-6.1954653E-1,1.2526952E-1,-1.8771327E-1,1.2448643E-2,-2.0493613E-1,-2.7958113E-1,1.1694701E-1,-1.3849442E-1,1.3592273E-1,-1.1726376E-1,6.525185E-2,1.195965E-1,-3.1721994E-4,-1.1154395E-1,6.434615E-2],"categories":[],"categories_nodes":[],"categories_segments":[],"categories_sizes":[],"default_left":[0,0,0,0,0,0,0,0,0,0,0,0,0,0,0,0,0,0,0,0,0,0,0,0,0,0,0,0,0],"id":9,"left_children":[1,3,5,7,9,11,13,-1,15,17,19,21,23,25,27,-1,-1,-1,-1,-1,-1,-1,-1,-1,-1,-1,-1,-1,-1],"loss_changes":[4.9081758E4,2.4176934E3,6.657176E3,1.7228906E2,2.352991E3,2.9573223E3,2.889722E3,0E0,9.611328E1,1.379336E3,4.0659875E2,1.7388059E3,9.649961E2,1.0734991E3,1.8973733E3,0E0,0E0,0E0,0E0,0E0,0E0,0E0,0E0,0E0,0E0,0E0,0E0,0E0,0E0],"parents":[2147483647,0,0,1,1,2,2,3,3,4,4,5,5,6,6,8,8,9,9,10,10,11,11,12,12,13,13,14,14],"right_children":[2,4,6,8,10,12,14,-1,16,18,20,22,24,26,28,-1,-1,-1,-1,-1,-1,-1,-1,-1,-1,-1,-1,-1,-1],"split_conditions":[-1.7859976E0,-1.6016932E0,1.3935225E0,-4.8604634E-1,2.1870494E0,-9.853448E-1,-4.480329E-1,-1.3431813E-1,-1.7279367E-1,-4.045383E-2,-1.987277E-2,-2.027623E0,2.2113247E0,1.475731E-1,7.2650313E-1,1.2526952E-1,-1.8771327E-1,1.2448643E-2,-2.0493613E-1,-2.7958113E-1,1.1694701E-1,-1.3849442E-1,1.3592273E-1,-1.1726376E-1,6.525185E-2,1.195965E-1,-3.1721994E-4,-1.1154395E-1,6.434615E-2],"split_indices":[13,9,3,3,3,19,11,0,2,14,10,0,10,13,19,0,0,0,0,0,0,0,0,0,0,0,0,0,0],"split_type":[0,0,0,0,0,0,0,0,0,0,0,0,0,0,0,0,0,0,0,0,0,0,0,0,0,0,0,0,0],"sum_hessian":[5.252413E4,2.125293E4,3.1271197E4,1.867104E4,2.581891E3,2.5062854E4,6.2083433E3,2.4866192E1,1.8646172E4,1.1868461E3,1.3950449E3,1.0934972E3,2.3969357E4,3.181075E3,3.0272686E3,1.8637195E4,8.976757E0,6.7193097E2,5.1491516E2,2.543585E1,1.3696091E3,3.298741E2,7.6362305E2,2.3676678E4,2.9267874E2,1.9847598E3,1.1963151E3,2.1738643E3,8.5340436E2],"tree_param":{"num_deleted":"0","num_feature":"29","num_nodes":"29","size_leaf_vector":"1"}},{"base_weights":[1.0155821E-1,1.0664884E0,-7.0506144E-1,-1.3096306E0,1.1177695E0,-1.0659252E0,-4.584621E-2,-1.273297E-1,-1.4665085E-1,1.21196E0,4.4857636E-1,-1.1313679E0,2.275774E-1,1.0819138E0,-3.750234E-1,-1.3512753E-1,1.21384345E-1,-5.0306395E-3,1.1671132E-1,-1.1612433E-1,1.0273011E-1,-1.331403E-1,1.64426E-1,1.9156894E-1,3.8005378E-2,3.6296107E-2,-1.02913E-1],"categories":[],"categories_nodes":[],"categories_segments":[],"categories_sizes":[],"default_left":[0,0,0,0,0,0,0,0,0,0,0,0,0,0,0,0,0,0,0,0,0,0,0,0,0,0,0],"id":10,"left_children":[1,3,5,7,9,11,13,-1,-1,15,17,19,21,23,25,-1,-1,-1,-1,-1,-1,-1,-1,-1,-1,-1,-1],"loss_changes":[4.1964086E4,2.9927207E3,6.9859287E3,1.0914307E0,1.5141465E3,1.60675E3,3.857465E3,0E0,0E0,1.0333984E2,1.063488E3,1.1661699E3,2.0224963E3,1.3731433E3,3.8829639E3,0E0,0E0,0E0,0E0,0E0,0E0,0E0,0E0,0E0,0E0,0E0,0E0],"parents":[2147483647,0,0,1,1,2,2,3,3,4,4,5,5,6,6,9,9,10,10,11,11,12,12,13,13,14,14],"right_children":[2,4,6,8,10,12,14,-1,-1,16,18,20,22,24,26,-1,-1,-1,-1,-1,-1,-1,-1,-1,-1,-1,-1],"split_conditions":[-1.3819888E0,-4.8604634E-1,7.413282E-1,1.987791E0,-1.4491781E0,1.6857946E0,-3.4707233E-1,-1.273297E-1,-1.4665085E-1,-8.085281E-1,1.1911429E-1,1.2022438E0,6.8208414E-1,-7.6551236E-2,-2.1248002E-1,-1.3512753E-1,1.21384345E-1,-5.0306395E-3,1.1671132E-1,-1.1612433E-1,1.0273011E-1,-1.331403E-1,1.64426E-1,1.9156894E-1,3.8005378E-2,3.6296107E-2,-1.02913E-1],"split_indices":[13,3,3,0,9,28,28,0,0,10,20,25,18,21,11,0,0,0,0,0,0,0,0,0,0,0,0],"split_type":[0,0,0,0,0,0,0,0,0,0,0,0,0,0,0,0,0,0,0,0,0,0,0,0,0,0,0],"sum_hessian":[5.391347E4,2.454766E4,2.9365809E4,5.180746E2,2.4029586E4,1.8976943E4,1.0388865E4,4.2805246E2,9.002213E1,2.106397E4,2.965614E3,1.806319E4,9.137538E2,2.3467207E3,8.0421445E3,1.494059E1,2.1049031E4,1.7508927E3,1.2147212E3,1.7817068E4,2.4612067E2,4.3505743E2,4.7869632E2,1.0717749E3,1.2749458E3,3.778999E3,4.2631455E3],"tree_param":{"num_deleted":"0","num_feature":"29","num_nodes":"27","size_leaf_vector":"1"}},{"base_weights":[4.980706E-2,1.0812008E0,-7.014741E-1,1.1879578E0,4.4999477E-1,-1.0669522E0,-7.2278805E-2,1.1901882E0,-1.4991955E0,-2.042591E0,6.305325E-1,7.7246286E-2,-1.1344609E0,6.8108493E-1,-5.540988E-1,1.1915461E-1,-2.5442848E-1,-2.4250093E-1,-1.1440893E-1,-1.3832067E-1,-2.6562285E-1,-9.386789E-2,8.6980484E-2,-1.2387635E-1,1.387457E-1,-1.1654661E-1,8.1638984E-2,9.648358E-2,-7.295682E-2,1.13570414E-1,-9.5897265E-2],"categories":[],"categories_nodes":[],"categories_segments":[],"categories_sizes":[],"default_left":[0,0,0,0,0,0,0,0,0,0,0,0,0,0,0,0,0,0,0,0,0,0,0,0,0,0,0,0,0,0,0],"id":11,"left_children":[1,3,5,7,9,11,13,15,17,19,21,23,25,27,29,-1,-1,-1,-1,-1,-1,-1,-1,-1,-1,-1,-1,-1,-1,-1,-1],"loss_changes":[3.821766E4,1.4001328E3,6.5619316E3,1.0833203E2,1.3551641E3,1.3943828E3,3.8066938E3,9.312109E1,2.218235E0,7.863806E1,1.0544373E3,1.7373577E3,1.0319453E3,1.6381755E3,4.377135E3,0E0,0E0,0E0,0E0,0E0,0E0,0E0,0E0,0E0,0E0,0E0,0E0,0E0,0E0,0E0,0E0],"parents":[2147483647,0,0,1,1,2,2,3,3,4,4,5,5,6,6,7,7,8,8,9,9,10,10,11,11,12,12,13,13,14,14],"right_children":[2,4,6,8,10,12,14,16,18,20,22,24,26,28,30,-1,-1,-1,-1,-1,-1,-1,-1,-1,-1,-1,-1,-1,-1,-1,-1],"split_conditions":[-1.7859976E0,-1.4160796E0,7.413282E-1,1.2646441E0,-6.3247275E-1,-2.588338E0,-3.2264403E-1,1.8626031E0,7.355684E-2,1.0483292E-1,-1.6426414E-2,1.5378694E-1,1.2022438E0,2.260544E-1,-4.7247222E-1,1.1915461E-1,-2.5442848E-1,-2.4250093E-1,-1.1440893E-1,-1.3832067E-1,-2.6562285E-1,-9.386789E-2,8.6980484E-2,-1.2387635E-1,1.387457E-1,-1.1654661E-1,8.1638984E-2,9.648358E-2,-7.295682E-2,1.13570414E-1,-9.5897265E-2],"split_indices":[13,11,3,8,11,2,28,0,9,3,27,3,25,7,19,0,0,0,0,0,0,0,0,0,0,0,0,0,0,0,0],"split_type":[0,0,0,0,0,0,0,0,0,0,0,0,0,0,0,0,0,0,0,0,0,0,0,0,0,0,0,0,0,0,0],"sum_hessian":[4.9319613E4,2.0784814E4,2.85348E4,1.7777238E4,3.0075752E3,1.8049668E4,1.0485134E4,1.7763053E4,1.4186259E1,2.0242935E2,2.805146E3,1.00560516E3,1.7044062E4,4.0898757E3,6.3952583E3,1.7757275E4,5.776148E0,2.316869E0,1.18693905E1,9.914602E1,1.0328333E2,3.7074954E2,2.4343962E3,5.017195E2,5.0388565E2,1.6777812E4,2.6624966E2,3.405234E3,6.8464185E2,1.2357716E3,5.159487E3],"tree_param":{"num_deleted":"0","num_feature":"29","num_nodes":"31","size_leaf_vector":"1"}},{"base_weights":[2.8692037E-2,1.0000445E0,-8.1467444E-1,1.1555799E0,2.809471E-1,-1.0874561E0,-3.1436735E-1,-1.2623765E-1,1.1624432E0,8.2467335E-1,-4.9640334E-1,-1.1306392E0,6.282039E-1,8.70632E-1,-7.0374644E-1,1.1774526E-1,8.1705965E-2,-2.9770305E-2,1.04130685E-1,-9.355019E-2,8.6621754E-2,-1.1636571E-1,6.7826E-2,1.588324E-1,-1.225638E-1,1.2042192E-1,-1.4482032E-1,6.157015E-2,-1.0351336E-1],"categories":[],"categories_nodes":[],"categories_segments":[],"categories_sizes":[],"default_left":[0,0,0,0,0,0,0,0,0,0,0,0,0,0,0,0,0,0,0,0,0,0,0,0,0,0,0,0,0],"id":12,"left_children":[1,3,5,7,9,11,13,-1,15,17,19,21,23,25,27,-1,-1,-1,-1,-1,-1,-1,-1,-1,-1,-1,-1,-1,-1],"loss_changes":[3.806162E4,2.4146777E3,3.3936738E3,2.9606836E2,1.6239032E3,1.1930566E3,4.0501748E3,0E0,9.080664E1,5.4995056E2,9.470786E2,9.384297E2,7.063952E2,1.6811262E3,2.8892583E3,0E0,0E0,0E0,0E0,0E0,0E0,0E0,0E0,0E0,0E0,0E0,0E0,0E0,0E0],"parents":[2147483647,0,0,1,1,2,2,3,3,4,4,5,5,6,6,8,8,9,9,10,10,11,11,12,12,13,13,14,14],"right_children":[2,4,6,8,10,12,14,-1,16,18,20,22,24,26,28,-1,-1,-1,-1,-1,-1,-1,-1,-1,-1,-1,-1,-1,-1],"split_conditions":[-1.3363411E0,-1.4491781E0,7.413282E-1,-4.5871922E-1,-3.10942E-1,1.5944186E0,-3.4707233E-1,-1.2623765E-1,-1.8875681E0,5.098953E-1,3.745749E0,1.2022438E0,-9.853448E-1,8.682013E-1,-3.6147168E-1,1.1774526E-1,8.1705965E-2,-2.9770305E-2,1.04130685E-1,-9.355019E-2,8.6621754E-2,-1.1636571E-1,6.7826E-2,1.588324E-1,-1.225638E-1,1.2042192E-1,-1.4482032E-1,6.157015E-2,-1.0351336E-1],"split_indices":[13,9,3,3,12,21,28,0,9,3,3,25,19,2,19,0,0,0,0,0,0,0,0,0,0,0,0,0,0],"split_type":[0,0,0,0,0,0,0,0,0,0,0,0,0,0,0,0,0,0,0,0,0,0,0,0,0,0,0,0,0],"sum_hessian":[4.6459594E4,2.159139E4,2.4868203E4,1.775131E4,3.8400815E3,1.6092784E4,8.775418E3,4.9726044E1,1.7701584E4,2.2595522E3,1.5805293E3,1.5698007E4,3.947774E2,2.170052E3,6.605366E3,1.6962049E4,7.395355E2,3.6550415E2,1.894048E3,1.1955742E3,3.8495508E2,1.5416958E4,2.8104916E2,2.6017422E2,1.3460315E2,1.8975513E3,2.7250073E2,1.3257832E3,5.279583E3],"tree_param":{"num_deleted":"0","num_feature":"29","num_nodes":"29","size_leaf_vector":"1"}},{"base_weights":[1.7963918E-2,1.0213404E0,-6.5258473E-1,1.148189E0,4.0112507E-1,-1.0439134E0,-4.0940993E-2,-1.2141142E-1,1.1511245E0,5.618506E-1,-2.1301472E0,4.6164453E-1,-1.1125631E0,8.131235E-1,-3.2079715E-1,1.15274034E-1,-1.8391122E-1,6.878216E-2,-1.70902E-1,-2.7137694E-1,-1.5382421E-1,1.3776998E-1,-1.2906127E-1,-1.1465378E-1,6.019146E-2,1.0660046E-1,-1.397972E-1,9.219732E-2,-7.177112E-2],"categories":[],"categories_nodes":[],"categories_segments":[],"categories_sizes":[],"default_left":[0,0,0,0,0,0,0,0,0,0,0,0,0,0,0,0,0,0,0,0,0,0,0,0,0,0,0,0,0],"id":13,"left_children":[1,3,5,7,9,11,13,-1,15,17,19,21,23,25,27,-1,-1,-1,-1,-1,-1,-1,-1,-1,-1,-1,-1,-1,-1],"loss_changes":[2.8598482E4,1.339127E3,6.098373E3,9.941992E1,1.1780582E3,1.6064258E3,2.3765571E3,0E0,7.033984E1,7.7948975E2,5.5559326E1,1.0905437E3,8.6628906E2,1.3736388E3,3.6947903E3,0E0,0E0,0E0,0E0,0E0,0E0,0E0,0E0,0E0,0E0,0E0,0E0,0E0,0E0],"parents":[2147483647,0,0,1,1,2,2,3,3,4,4,5,5,6,6,8,8,9,9,10,10,11,11,12,12,13,13,14,14],"right_children":[2,4,6,8,10,12,14,-1,16,18,20,22,24,26,28,-1,-1,-1,-1,-1,-1,-1,-1,-1,-1,-1,-1,-1,-1],"split_conditions":[-1.7859976E0,-1.7696148E0,7.413282E-1,-4.8604634E-1,1.0114347E0,-9.853448E-1,-3.4707233E-1,-1.2141142E-1,3.1570253E-1,1.0663408E0,3.5990238E-1,-8.945301E-1,1.2022438E0,1.3239324E-1,-3.5429665E-1,1.15274034E-1,-1.8391122E-1,6.878216E-2,-1.70902E-1,-2.7137694E-1,-1.5382421E-1,1.3776998E-1,-1.2906127E-1,-1.1465378E-1,6.019146E-2,1.0660046E-1,-1.397972E-1,9.219732E-2,-7.177112E-2],"split_indices":[13,9,3,3,14,19,28,0,11,6,8,15,25,8,19,0,0,0,0,0,0,0,0,0,0,0,0,0,0],"split_type":[0,0,0,0,0,0,0,0,0,0,0,0,0,0,0,0,0,0,0,0,0,0,0,0,0,0,0,0,0],"sum_hessian":[4.2503867E4,1.7026186E4,2.5477682E4,1.4134498E4,2.891688E3,1.5536651E4,9.941029E3,1.7030005E1,1.4117468E4,2.7197715E3,1.7191641E2,6.772893E2,1.4859362E4,2.4530154E3,7.488014E3,1.4110457E4,7.0106997E0,2.5774888E3,1.4228275E2,8.475886E1,8.715756E1,4.4491028E2,2.3237904E2,1.457095E4,2.8841183E2,2.201724E3,2.5129146E2,1.8122836E3,5.6757305E3],"tree_param":{"num_deleted":"0","num_feature":"29","num_nodes":"29","size_leaf_vector":"1"}},{"base_weights":[5.027894E-2,8.422262E-1,-8.12609E-1,-9.141542E-1,9.507014E-1,-3.8186282E-1,-1.0705124E0,-1.1969773E0,4.8000142E-1,1.1051744E0,1.7388147E-1,-1.1678067E0,-1.856287E-2,1.023033E0,-1.1152613E0,-1.293947E-1,-1.17077544E-1,1.4421533E-1,-1.1814471E-1,1.11793675E-1,-1.427167E-1,-1.3200669E-1,5.5633105E-2,-1.2831788E-1,-1.1614789E-1,5.3878646E-2,-9.111769E-2,-1.1806928E-1,3.7047005E-1,-1.1490854E-1,1.00540414E-1],"categories":[],"categories_nodes":[],"categories_segments":[],"categories_sizes":[],"default_left":[0,0,0,0,0,0,0,0,0,0,0,0,0,0,0,0,0,0,0,0,0,0,0,0,0,0,0,0,0,0,0],"id":14,"left_children":[1,3,5,7,9,11,13,15,17,19,21,23,25,27,29,-1,-1,-1,-1,-1,-1,-1,-1,-1,-1,-1,-1,-1,-1,-1,-1],"loss_changes":[2.7901072E4,4.0570596E3,2.170246E3,4.8906885E2,2.4059766E3,2.0898533E3,1.1460791E3,1.1026611E0,3.3684848E2,5.4214844E2,1.9017429E3,1.9848633E-1,2.4911948E3,1.5189077E3,8.594678E2,0E0,0E0,0E0,0E0,0E0,0E0,0E0,0E0,0E0,0E0,0E0,0E0,0E0,0E0,0E0,0E0],"parents":[2147483647,0,0,1,1,2,2,3,3,4,4,5,5,6,6,7,7,8,8,9,9,10,10,11,11,12,12,13,13,14,14],"right_children":[2,4,6,8,10,12,14,16,18,20,22,24,26,28,30,-1,-1,-1,-1,-1,-1,-1,-1,-1,-1,-1,-1,-1,-1,-1,-1],"split_conditions":[-8.069166E-1,-4.8604634E-1,-1.3446109E-1,1.327541E0,-3.0589217E-1,-2.1592973E-1,-2.150176E0,-1.7859976E0,-1.0690001E0,1.2329714E0,2.0014672E-1,-9.853448E-1,3.3668974E-1,6.959755E-1,2.1755762E0,-1.293947E-1,-1.17077544E-1,1.4421533E-1,-1.1814471E-1,1.11793675E-1,-1.427167E-1,-1.3200669E-1,5.5633105E-2,-1.2831788E-1,-1.1614789E-1,5.3878646E-2,-9.111769E-2,-1.1806928E-1,3.7047005E-1,-1.1490854E-1,1.00540414E-1],"split_indices":[13,3,7,10,11,3,15,13,6,2,17,19,0,23,16,0,0,0,0,0,0,0,0,0,0,0,0,0,0,0,0],"split_type":[0,0,0,0,0,0,0,0,0,0,0,0,0,0,0,0,0,0,0,0,0,0,0,0,0,0,0,0,0,0,0],"sum_hessian":[4.082714E4,2.1288686E4,1.9538453E4,1.2378921E3,2.0050795E4,7.3181963E3,1.2220257E4,1.0292388E3,2.0865335E2,1.6724629E4,3.3261646E3,2.3127344E3,5.005462E3,2.5528102E2,1.1964976E4,2.0865349E2,8.205852E2,1.3221759E2,7.643577E1,1.664132E4,8.330986E1,6.7744293E2,2.6487217E3,1.0976046E2,2.2029739E3,3.0816636E3,1.9237983E3,1.4043492E2,1.14846115E2,1.1777585E4,1.8739098E2],"tree_param":{"num_deleted":"0","num_feature":"29","num_nodes":"31","size_leaf_vector":"1"}},{"base_weights":[2.9497877E-2,1.0682222E0,-5.618174E-1,1.1025503E0,-1.218221E0,-9.380096E-1,-4.2405028E-2,1.0823686E0,3.280338E-1,-1.1556418E-1,-1.4749585E-1,-1.8590747E-1,-1.1023189E0,2.8189236E-1,-1.1160222E0,-1.1582225E-1,1.1047583E-1,-1.1507044E-1,8.424499E-2,-1.15516044E-1,7.164621E-2,8.040049E-2,-2.5650367E-2,1.4537357E-1,-1.2952332E-1],"categories":[],"categories_nodes":[],"categories_segments":[],"categories_sizes":[],"default_left":[0,0,0,0,0,0,0,0,0,0,0,0,0,0,0,0,0,0,0,0,0,0,0,0,0],"id":15,"left_children":[1,3,5,7,9,11,13,15,-1,-1,-1,17,19,21,23,-1,-1,-1,-1,-1,-1,-1,-1,-1,-1],"loss_changes":[2.3107543E4,1.0725283E3,4.684416E3,5.874297E2,1.5464478E0,1.7179834E3,3.5067722E3,6.6970703E2,0E0,0E0,0E0,2.4754993E3,1.0974717E3,2.1746855E3,1.0779336E3,0E0,0E0,0E0,0E0,0E0,0E0,0E0,0E0,0E0,0E0],"parents":[2147483647,0,0,1,1,2,2,3,3,4,4,5,5,6,6,7,7,11,11,12,12,13,13,14,14],"right_children":[2,4,6,8,10,12,14,16,-1,-1,-1,18,20,22,24,-1,-1,-1,-1,-1,-1,-1,-1,-1,-1],"split_conditions":[-1.6809931E0,2.1780647E-1,7.59473E-1,2.1166307E-1,6.9589996E-1,-8.771465E-1,1.8081473E-1,-4.8604634E-1,3.280338E-1,-1.1556418E-1,-1.4749585E-1,-2.7838778E-1,1.5944186E0,-3.2709396E-1,-1.8650155E0,-1.1582225E-1,1.1047583E-1,-1.1507044E-1,8.424499E-2,-1.15516044E-1,7.164621E-2,8.040049E-2,-2.5650367E-2,1.4537357E-1,-1.2952332E-1],"split_indices":[9,13,3,13,3,9,7,3,0,0,0,3,21,13,24,0,0,0,0,0,0,0,0,0,0],"split_type":[0,0,0,0,0,0,0,0,0,0,0,0,0,0,0,0,0,0,0,0,0,0,0,0,0],"sum_hessian":[3.761937E4,1.3646561E4,2.3972812E4,1.3445215E4,2.0134511E2,1.3902739E4,1.0070072E4,1.3323245E4,1.2197019E2,1.66309E2,3.5036106E1,2.4930938E3,1.14096455E4,7.734517E3,2.3355552E3,1.3131718E2,1.3191928E4,1.286237E3,1.2068566E3,1.1087872E4,3.217739E2,3.926388E3,3.8081294E3,1.5179596E2,2.183759E3],"tree_param":{"num_deleted":"0","num_feature":"29","num_nodes":"25","size_leaf_vector":"1"}},{"base_weights":[7.412105E-2,9.999941E-1,-5.225991E-1,1.0759734E0,-1.469698E-1,4.8902318E-1,-7.1126676E-1,-1.14366725E-1,1.0839602E0,1.3021706E0,-1.1889111E0,1.0467775E0,-7.799118E-1,3.0320036E-1,-8.5999143E-1,1.1182268E-1,7.168948E-2,1.7590968E-1,-1.137774E-1,-1.1460247E-1,-1.4188486E-1,5.3886782E-2,2.378511E-1,1.748354E-1,-1.2579946E-1,8.613735E-2,-1.02523744E-1,-9.694304E-2,1.723596E-2],"categories":[],"categories_nodes":[],"categories_segments":[],"categories_sizes":[],"default_left":[0,0,0,0,0,0,0,0,0,0,0,0,0,0,0,0,0,0,0,0,0,0,0,0,0,0,0,0,0],"id":16,"left_children":[1,3,5,7,9,11,13,-1,15,17,19,21,23,25,27,-1,-1,-1,-1,-1,-1,-1,-1,-1,-1,-1,-1,-1,-1],"loss_changes":[2.0126205E4,1.2443027E3,4.2282476E3,2.3860938E2,1.3421477E3,2.4655867E3,2.817162E3,0E0,1.6701953E2,4.1655853E2,3.472412E0,1.6353438E3,1.2881735E3,1.7715094E3,1.8398545E3,0E0,0E0,0E0,0E0,0E0,0E0,0E0,0E0,0E0,0E0,0E0,0E0,0E0,0E0],"parents":[2147483647,0,0,1,1,2,2,3,3,4,4,5,5,6,6,8,8,9,9,10,10,11,11,12,12,13,13,14,14],"right_children":[2,4,6,8,10,12,14,-1,16,18,20,22,24,26,28,-1,-1,-1,-1,-1,-1,-1,-1,-1,-1,-1,-1,-1,-1],"split_conditions":[-1.4045628E0,-1.1577305E0,-1.0702741E0,-4.8604634E-1,-1.1530814E0,1.06149286E-1,-4.7247222E-1,-1.14366725E-1,4.6772346E-1,-4.7981486E-1,4.9080473E-1,1.0663408E0,-2.4690466E0,-1.8090695E-1,7.6623476E-1,1.1182268E-1,7.168948E-2,1.7590968E-1,-1.137774E-1,-1.1460247E-1,-1.4188486E-1,5.3886782E-2,2.378511E-1,1.748354E-1,-1.2579946E-1,8.613735E-2,-1.02523744E-1,-9.694304E-2,1.723596E-2],"split_indices":[9,13,18,3,15,5,19,0,15,7,3,6,14,12,28,0,0,0,0,0,0,0,0,0,0,0,0,0,0],"split_type":[0,0,0,0,0,0,0,0,0,0,0,0,0,0,0,0,0,0,0,0,0,0,0,0,0,0,0,0,0],"sum_hessian":[3.6426426E4,1.4275631E4,2.2150793E4,1.3388769E4,8.868618E2,3.481524E3,1.866927E4,4.7493034E1,1.3341275E4,3.7084198E2,5.1601984E2,2.4186104E3,1.0629137E3,2.3869038E3,1.6282366E4,1.2200296E4,1.1409796E3,3.1258377E2,5.825822E1,4.399479E2,7.6071915E1,1.7518696E3,6.667407E2,1.6860667E2,8.9430695E2,1.6809615E3,7.059423E2,1.4721778E4,1.5605873E3],"tree_param":{"num_deleted":"0","num_feature":"29","num_nodes":"29","size_leaf_vector":"1"}},{"base_weights":[7.214044E-2,8.846498E-1,-5.7560754E-1,1.08318E0,2.8474748E-1,-7.652667E-1,6.6171026E-1,-1.3039462E-1,1.0882843E0,-8.7314427E-1,5.615695E-1,-1.0223627E0,-2.9002804E-1,2.08499E0,1.8584642E-1,1.0901171E-1,-2.6492968E-1,-1.5213853E-1,8.72153E-2,6.850662E-2,-1.4315124E-1,-4.0710103E-3,-1.10693194E-1,2.3044598E-1,-4.3693632E-2,2.7573165E-1,-1.24176815E-1,-9.806778E-2,1.1057868E-1],"categories":[],"categories_nodes":[],"categories_segments":[],"categories_sizes":[],"default_left":[0,0,0,0,0,0,0,0,0,0,0,0,0,0,0,0,0,0,0,0,0,0,0,0,0,0,0,0,0],"id":17,"left_children":[1,3,5,7,9,11,13,-1,15,17,19,21,23,25,27,-1,-1,-1,-1,-1,-1,-1,-1,-1,-1,-1,-1,-1,-1],"loss_changes":[1.8148096E4,1.8214043E3,4.50299E3,1.4144531E2,1.2199968E3,2.0324385E3,1.7271134E3,0E0,8.1447266E1,8.323026E2,7.56916E2,8.9620605E2,2.2277034E3,1.4326636E3,2.0535718E3,0E0,0E0,0E0,0E0,0E0,0E0,0E0,0E0,0E0,0E0,0E0,0E0,0E0,0E0],"parents":[2147483647,0,0,1,1,2,2,3,3,4,4,5,5,6,6,8,8,9,9,10,10,11,11,12,12,13,13,14,14],"right_children":[2,4,6,8,10,12,14,-1,16,18,20,22,24,26,28,-1,-1,-1,-1,-1,-1,-1,-1,-1,-1,-1,-1,-1,-1],"split_conditions":[-1.3363411E0,-1.4160796E0,1.278442E0,2.3076165E-1,-4.5457458E-1,8.9254093E-1,-5.366979E-1,-1.3039462E-1,1.8599873E0,1.360379E0,4.7627756E-1,-1.3300555E0,9.120405E-1,-5.171353E-1,1.3935225E0,1.0901171E-1,-2.6492968E-1,-1.5213853E-1,8.72153E-2,6.850662E-2,-1.4315124E-1,-4.0710103E-3,-1.10693194E-1,2.3044598E-1,-4.3693632E-2,2.7573165E-1,-1.24176815E-1,-9.806778E-2,1.1057868E-1],"split_indices":[13,11,6,3,0,3,25,0,6,22,25,5,3,12,3,0,0,0,0,0,0,0,0,0,0,0,0,0,0],"split_type":[0,0,0,0,0,0,0,0,0,0,0,0,0,0,0,0,0,0,0,0,0,0,0,0,0,0,0,0,0],"sum_hessian":[3.4480363E4,1.5294804E4,1.918556E4,1.1491146E4,3.8036567E3,1.6635943E4,2.549617E3,2.397562E1,1.1467171E4,7.334841E2,3.0701726E3,1.0794922E4,5.841021E3,6.38004E2,1.9116128E3,1.1462259E4,4.9124146E0,5.349284E2,1.9855568E2,2.8916543E3,1.7851836E2,8.563352E2,9.938587E3,3.1222662E2,5.5287944E3,5.3088513E2,1.071189E2,8.4281757E2,1.0687953E3],"tree_param":{"num_deleted":"0","num_feature":"29","num_nodes":"29","size_leaf_vector":"1"}},{"base_weights":[6.849407E-2,9.30654E-1,-5.0152105E-1,1.0838301E0,3.3585194E-1,-6.680902E-1,4.8900977E-1,1.0850317E0,-1.0216748E-1,7.6077276E-1,-1.6409385E0,-9.7322696E-1,-2.2078276E-1,1.023171E0,-7.744724E-1,-1.9318025E-1,1.0855434E-1,9.271939E-2,-1.4636536E-1,6.618699E-2,-2.1352153E-1,-1.02486126E-1,1.1448888E-1,7.7992395E-2,-5.5712022E-2,8.225674E-2,5.133526E-1,-1.1945634E-1,1.4697003E-1],"categories":[],"categories_nodes":[],"categories_segments":[],"categories_sizes":[],"default_left":[0,0,0,0,0,0,0,0,0,0,0,0,0,0,0,0,0,0,0,0,0,0,0,0,0,0,0,0,0],"id":18,"left_children":[1,3,5,7,9,11,13,15,-1,17,19,21,23,25,27,-1,-1,-1,-1,-1,-1,-1,-1,-1,-1,-1,-1,-1,-1],"loss_changes":[1.5812541E4,1.1663936E3,3.1961567E3,2.686914E1,2.2053293E3,2.263021E3,1.8830374E3,1.7807617E1,0E0,8.0112256E2,5.301875E2,1.0792139E3,2.2641138E3,1.6124185E3,7.8356604E2,0E0,0E0,0E0,0E0,0E0,0E0,0E0,0E0,0E0,0E0,0E0,0E0,0E0,0E0],"parents":[2147483647,0,0,1,1,2,2,3,3,4,4,5,5,6,6,7,7,9,9,10,10,11,11,12,12,13,13,14,14],"right_children":[2,4,6,8,10,12,14,16,-1,18,20,22,24,26,28,-1,-1,-1,-1,-1,-1,-1,-1,-1,-1,-1,-1,-1,-1],"split_conditions":[-1.7859976E0,-1.9415451E0,7.6623476E-1,5.767415E-1,3.1227365E-1,7.413282E-1,2.5552018E-2,4.6018746E-2,-1.0216748E-1,-4.2230874E-1,-8.6251116E-1,1.2022438E0,-3.5429665E-1,1.8320117E-2,2.1755762E0,-1.9318025E-1,1.0855434E-1,9.271939E-2,-1.4636536E-1,6.618699E-2,-2.1352153E-1,-1.02486126E-1,1.1448888E-1,7.7992395E-2,-5.5712022E-2,8.225674E-2,5.133526E-1,-1.1945634E-1,1.4697003E-1],"split_indices":[13,11,28,9,14,3,11,10,0,2,21,25,19,11,16,0,0,0,0,0,0,0,0,0,0,0,0,0,0],"split_type":[0,0,0,0,0,0,0,0,0,0,0,0,0,0,0,0,0,0,0,0,0,0,0,0,0,0,0,0,0],"sum_hessian":[3.217371E4,1.2805098E4,1.9368613E4,1.0182127E4,2.6229705E3,1.6580703E4,2.7879116E3,1.0176805E4,5.3230124E0,2.15941E3,4.635606E2,9.856075E3,6.7246274E3,1.9596306E3,8.2828094E2,1.0855781E0,1.0175719E4,2.0096411E3,1.4976874E2,8.1856514E1,3.817041E2,9.622031E3,2.3404413E2,1.6912686E3,5.033359E3,1.8695867E3,9.004398E1,6.9807465E2,1.3020625E2],"tree_param":{"num_deleted":"0","num_feature":"29","num_nodes":"29","size_leaf_vector":"1"}},{"base_weights":[5.688536E-2,7.433807E-1,-6.4152795E-1,-1.1113304E-1,9.4005305E-1,-1.9328672E-1,-9.7586393E-1,2.9942974E-1,-1.1348345E0,9.761416E-1,-1.3002676E0,-6.742873E-1,4.2045417E-1,9.150652E-1,-1.0310146E0,-8.285917E-2,1.0409724E-1,1.0167962E-1,-1.2468433E-1,9.926148E-2,-1.7073594E-1,-1.4624664E-1,-1.2383671E-1,8.718041E-2,-9.301606E-2,1.1282277E-1,-1.56136695E-2,2.207535E-1,-1.118082E-1,1.0900009E-1,-1.0808637E-1],"categories":[],"categories_nodes":[],"categories_segments":[],"categories_sizes":[],"default_left":[0,0,0,0,0,0,0,0,0,0,0,0,0,0,0,0,0,0,0,0,0,0,0,0,0,0,0,0,0,0,0],"id":19,"left_children":[1,3,5,7,9,11,13,15,17,19,21,23,25,27,29,-1,-1,-1,-1,-1,-1,-1,-1,-1,-1,-1,-1,-1,-1,-1,-1],"loss_changes":[1.4471118E4,2.558128E3,2.2419604E3,1.1976182E3,1.00164844E3,1.887584E3,8.9459375E2,1.7022721E3,1.978407E2,5.400205E2,1.6271973E-1,1.4188573E3,1.1467493E3,6.420081E2,8.81583E2,0E0,0E0,0E0,0E0,0E0,0E0,0E0,0E0,0E0,0E0,0E0,0E0,0E0,0E0,0E0,0E0],"parents":[2147483647,0,0,1,1,2,2,3,3,4,4,5,5,6,6,7,7,8,8,9,9,10,10,11,11,12,12,13,13,14,14],"right_children":[2,4,6,8,10,12,14,16,18,20,22,24,26,28,30,-1,-1,-1,-1,-1,-1,-1,-1,-1,-1,-1,-1,-1,-1,-1,-1],"split_conditions":[-8.069166E-1,7.59473E-1,-1.1611094E-1,2.2414032E-2,1.2329714E0,8.9254093E-1,-2.150176E0,-2.9454771E-2,-4.9403014E0,1.9602777E0,-2.2188422E-1,-1.0262203E0,-8.6922354E-1,-4.8845744E-1,-2.450811E0,-8.285917E-2,1.0409724E-1,1.0167962E-1,-1.2468433E-1,9.926148E-2,-1.7073594E-1,-1.4624664E-1,-1.2383671E-1,8.718041E-2,-9.301606E-2,1.1282277E-1,-1.56136695E-2,2.207535E-1,-1.118082E-1,1.0900009E-1,-1.0808637E-1],"split_indices":[13,3,7,26,2,3,15,26,6,0,11,9,10,13,18,0,0,0,0,0,0,0,0,0,0,0,0,0,0,0,0],"split_type":[0,0,0,0,0,0,0,0,0,0,0,0,0,0,0,0,0,0,0,0,0,0,0,0,0,0,0,0,0,0,0],"sum_hessian":[3.018028E4,1.5219967E4,1.49603125E4,2.8476707E3,1.2372296E4,6.3920835E3,8.5682295E3,2.0330206E3,8.1464996E2,1.217671E4,1.9558604E2,3.5835146E3,2.8085686E3,2.4237634E2,8.325854E3,8.063294E2,1.2266913E3,3.991057E1,7.747394E2,1.2103043E4,7.366677E1,4.777478E1,1.4781126E2,5.085059E2,3.0750088E3,1.2604237E3,1.5481449E3,1.4812662E2,9.4249725E1,1.9070586E2,8.1351475E3],"tree_param":{"num_deleted":"0","num_feature":"29","num_nodes":"31","size_leaf_vector":"1"}},{"base_weights":[6.290441E-2,9.377028E-1,-4.1893724E-1,-1.0997476E-1,1.0064564E0,-9.329739E-1,-7.5052254E-2,1.072176E0,2.867113E-1,-9.993754E-1,1.0107169E0,4.4027954E-1,-4.5813924E-1,1.0781204E-1,-2.3598729E-1,1.0076153E-1,-2.0758085E-1,-1.0540593E-1,1.1334212E-1,-1.2255994E-1,2.909363E-1,9.468259E-2,-4.3942854E-2,-7.175147E-2,7.5999774E-2],"categories":[],"categories_nodes":[],"categories_segments":[],"categories_sizes":[],"default_left":[0,0,0,0,0,0,0,0,0,0,0,0,0,0,0,0,0,0,0,0,0,0,0,0,0],"id":20,"left_children":[1,3,5,-1,7,9,11,13,15,17,19,21,23,-1,-1,-1,-1,-1,-1,-1,-1,-1,-1,-1,-1],"loss_changes":[1.1942081E4,1.4106855E3,3.2293198E3,0E0,4.601504E2,9.461113E2,2.1613628E3,1.845166E2,1.3916118E3,8.2708887E2,1.0327755E3,2.0807192E3,1.9846732E3,0E0,0E0,0E0,0E0,0E0,0E0,0E0,0E0,0E0,0E0,0E0,0E0],"parents":[2147483647,0,0,1,1,2,2,4,4,5,5,6,6,7,7,8,8,9,9,10,10,11,11,12,12],"right_children":[2,4,6,-1,8,10,12,14,16,18,20,22,24,-1,-1,-1,-1,-1,-1,-1,-1,-1,-1,-1,-1],"split_conditions":[-1.4045628E0,-4.8604634E-1,3.1228277E-1,-1.0997476E-1,4.6772346E-1,1.2022438E0,-4.254906E-1,2.983501E0,-3.6156354E0,1.7888348E0,1.3465661E0,-1.8090695E-1,6.224646E-1,1.0781204E-1,-2.3598729E-1,1.0076153E-1,-2.0758085E-1,-1.0540593E-1,1.1334212E-1,-1.2255994E-1,2.909363E-1,9.468259E-2,-4.3942854E-2,-7.175147E-2,7.5999774E-2],"split_indices":[9,3,3,0,15,25,13,16,13,21,11,12,19,0,0,0,0,0,0,0,0,0,0,0,0],"split_type":[0,0,0,0,0,0,0,0,0,0,0,0,0,0,0,0,0,0,0,0,0,0,0,0,0],"sum_hessian":[2.832945E4,1.0061515E4,1.8267934E4,3.2795233E2,9.733562E3,7.3217397E3,1.0946194E4,8.918709E3,8.14853E2,7.0803433E3,2.4139671E2,4.6674087E3,6.278786E3,8.903973E3,1.4735888E1,6.247799E2,1.9007309E2,6.903838E3,1.7650533E2,1.1100462E2,1.3039209E2,2.961859E3,1.7055497E3,5.176892E3,1.1018939E3],"tree_param":{"num_deleted":"0","num_feature":"29","num_nodes":"25","size_leaf_vector":"1"}},{"base_weights":[6.893985E-2,8.196797E-1,-4.41318E-1,-5.456098E-1,9.7270447E-1,1.851675E-1,-6.777517E-1,9.3777937E-1,-1.1025409E0,5.759879E0,9.3079144E-1,7.088212E-1,-7.0988846E-1,-7.497538E-1,1.3157796E0,1.5426649E-1,-1.0804995E-1,-1.2686883E-1,-1.0888916E-1,6.847907E-1,-1.08921885E-1,1.0406816E-1,-1.49922315E-2,-1.08859554E-1,9.987234E-2,5.8487576E-2,-1.2035694E-1,4.7981393E-2,-8.6622916E-2,-1.2213607E-1,2.0342122E-1],"categories":[],"categories_nodes":[],"categories_segments":[],"categories_sizes":[],"default_left":[0,0,0,0,0,0,0,0,0,0,0,0,0,0,0,0,0,0,0,0,0,0,0,0,0,0,0,0,0,0,0],"id":21,"left_children":[1,3,5,7,9,11,13,15,17,19,21,23,25,27,29,-1,-1,-1,-1,-1,-1,-1,-1,-1,-1,-1,-1,-1,-1,-1,-1],"loss_changes":[1.0148966E4,2.2403003E3,2.3364902E3,8.941974E2,1.9289414E3,2.0264719E3,1.6447412E3,3.625996E2,4.020996E-1,6.295471E2,1.1352549E3,1.4223524E3,1.0208494E3,1.5833818E3,7.30779E2,0E0,0E0,0E0,0E0,0E0,0E0,0E0,0E0,0E0,0E0,0E0,0E0,0E0,0E0,0E0,0E0],"parents":[2147483647,0,0,1,1,2,2,3,3,4,4,5,5,6,6,7,7,8,8,9,9,10,10,11,11,12,12,13,13,14,14],"right_children":[2,4,6,8,10,12,14,16,18,20,22,24,26,28,30,-1,-1,-1,-1,-1,-1,-1,-1,-1,-1,-1,-1,-1,-1,-1,-1],"split_conditions":[-9.746951E-1,-2.7838778E-1,-6.434785E-1,-1.1530814E0,-2.6251218E-1,2.0427052E-2,1.2022438E0,-4.06262E-3,-1.7859976E0,-1.5605403E0,5.375152E-1,4.331174E-2,-1.7910584E0,-9.853448E-1,1.2129052E0,1.5426649E-1,-1.0804995E-1,-1.2686883E-1,-1.0888916E-1,6.847907E-1,-1.08921885E-1,1.0406816E-1,-1.49922315E-2,-1.08859554E-1,9.987234E-2,5.8487576E-2,-1.2035694E-1,4.7981393E-2,-8.6622916E-2,-1.2213607E-1,2.0342122E-1],"split_indices":[9,3,18,15,3,21,25,11,13,12,15,3,14,19,18,0,0,0,0,0,0,0,0,0,0,0,0,0,0,0,0],"split_type":[0,0,0,0,0,0,0,0,0,0,0,0,0,0,0,0,0,0,0,0,0,0,0,0,0,0,0,0,0,0,0],"sum_hessian":[2.6491756E4,1.0719542E4,1.5772215E4,1.0801211E3,9.639421E3,4.3215337E3,1.1450681E4,2.94646E2,7.854751E2,8.247927E1,9.556941E3,2.7265627E3,1.5949711E3,1.1052126E4,3.985549E2,2.2688377E2,6.776223E1,5.2649017E1,7.328261E2,7.1173096E1,1.1306176E1,8.674891E3,8.8205145E2,3.7830252E2,2.3482603E3,4.4022354E2,1.1547476E3,9.5608875E2,1.0096037E4,8.779774E1,3.1075717E2],"tree_param":{"num_deleted":"0","num_feature":"29","num_nodes":"31","size_leaf_vector":"1"}},{"base_weights":[9.410284E-2,6.133971E-1,-6.1964494E-1,8.966906E-1,-1.7514291E-1,-8.157144E-1,5.421602E-1,-1.0857924E-1,9.749765E-1,4.136778E-1,-7.3000354E-1,8.66412E-1,-9.367337E-1,1.7450017E0,-3.070761E-1,1.0070105E-1,-1.3034661E-1,-1.3574539E-1,7.557236E-2,1.4499371E-1,-9.313103E-2,-1.20123915E-1,1.4555858E-1,1.16018735E-1,-9.8414585E-2,-1.2147176E-1,2.0908964E-1,1.5266488E-1,-1.2809476E-1],"categories":[],"categories_nodes":[],"categories_segments":[],"categories_sizes":[],"default_left":[0,0,0,0,0,0,0,0,0,0,0,0,0,0,0,0,0,0,0,0,0,0,0,0,0,0,0,0,0],"id":22,"left_children":[1,3,5,7,9,11,13,-1,15,17,19,21,23,25,27,-1,-1,-1,-1,-1,-1,-1,-1,-1,-1,-1,-1,-1,-1],"loss_changes":[9.500852E3,3.3147393E3,2.4595977E3,1.6952568E3,1.2818573E3,1.8812026E3,1.5934677E3,0E0,7.6783105E2,1.154293E3,8.87749E2,7.576117E2,8.578989E2,6.633699E2,1.635814E3,0E0,0E0,0E0,0E0,0E0,0E0,0E0,0E0,0E0,0E0,0E0,0E0,0E0,0E0],"parents":[2147483647,0,0,1,1,2,2,3,3,4,4,5,5,6,6,8,8,9,9,10,10,11,11,12,12,13,13,14,14],"right_children":[2,4,6,8,10,12,14,-1,16,18,20,22,24,26,28,-1,-1,-1,-1,-1,-1,-1,-1,-1,-1,-1,-1,-1,-1],"split_conditions":[-4.254906E-1,-2.305469E-1,1.278442E0,-7.610427E-1,-1.4611049E-1,-1.1679764E0,-5.366979E-1,-1.0857924E-1,1.2329714E0,-6.822609E-1,-2.150176E0,2.409246E-1,-2.450811E0,1.614693E-1,1.3146542E0,1.0070105E-1,-1.3034661E-1,-1.3574539E-1,7.557236E-2,1.4499371E-1,-9.313103E-2,-1.20123915E-1,1.4555858E-1,1.16018735E-1,-9.8414585E-2,-1.2147176E-1,2.0908964E-1,1.5266488E-1,-1.2809476E-1],"split_indices":[13,11,6,3,23,24,25,0,2,23,15,19,18,14,6,0,0,0,0,0,0,0,0,0,0,0,0,0,0],"split_type":[0,0,0,0,0,0,0,0,0,0,0,0,0,0,0,0,0,0,0,0,0,0,0,0,0,0,0,0,0],"sum_hessian":[2.5631258E4,1.4836764E4,1.0794494E4,1.0915196E4,3.9215671E3,9.236084E3,1.5584097E3,4.1416483E2,1.0501031E4,1.9026842E3,2.018883E3,6.194724E2,8.616611E3,6.444991E2,9.139105E2,1.0355988E4,1.4504292E2,3.074941E2,1.5951901E3,1.7014868E2,1.8487344E3,1.3714299E2,4.823294E2,1.8999791E2,8.426614E3,6.7176605E1,5.773225E2,3.1681143E2,5.970991E2],"tree_param":{"num_deleted":"0","num_feature":"29","num_nodes":"29","size_leaf_vector":"1"}},{"base_weights":[1.3213679E-1,9.6566355E-1,-2.445169E-1,-1.0655623E-1,9.961462E-1,-9.342466E-1,2.5960788E-2,-1.23029105E-1,1.0143473E0,-1.0107334E0,1.165525E0,7.859087E-1,-2.047814E-1,1.0255499E-1,-1.21023476E-1,-1.0767285E-1,2.9099708E-2,1.6685258E-1,-1.1300439E-1,1.0824082E-1,-8.447579E-2,5.4156113E-2,-4.4647418E-2],"categories":[],"categories_nodes":[],"categories_segments":[],"categories_sizes":[],"default_left":[0,0,0,0,0,0,0,0,0,0,0,0,0,0,0,0,0,0,0,0,0,0,0],"id":23,"left_children":[1,3,5,-1,7,9,11,-1,13,15,17,19,21,-1,-1,-1,-1,-1,-1,-1,-1,-1,-1],"loss_changes":[7.8413003E3,4.823745E2,3.2093457E3,0E0,3.1162207E2,7.7944727E2,2.167175E3,0E0,1.9057959E2,4.0202637E2,1.9907747E2,1.3926615E3,1.7103953E3,0E0,0E0,0E0,0E0,0E0,0E0,0E0,0E0,0E0,0E0],"parents":[2147483647,0,0,1,1,2,2,4,4,5,5,6,6,8,8,9,9,10,10,11,11,12,12],"right_children":[2,4,6,-1,8,10,12,-1,14,16,18,20,22,-1,-1,-1,-1,-1,-1,-1,-1,-1,-1],"split_conditions":[-1.6016932E0,-1.32018E0,-2.1900374E-2,-1.0655623E-1,-8.085281E-1,1.7888348E0,-1.0702741E0,-1.23029105E-1,8.01032E-1,1.8243738E0,-2.11982E0,2.5552018E-2,-4.4057715E-1,1.0255499E-1,-1.21023476E-1,-1.0767285E-1,2.9099708E-2,1.6685258E-1,-1.1300439E-1,1.0824082E-1,-8.447579E-2,5.4156113E-2,-4.4647418E-2],"split_indices":[9,3,3,0,10,21,18,0,13,15,12,11,7,0,0,0,0,0,0,0,0,0,0],"split_type":[0,0,0,0,0,0,0,0,0,0,0,0,0,0,0,0,0,0,0,0,0,0,0],"sum_hessian":[2.4974445E4,7.7725005E3,1.7201945E4,1.14415436E2,7.658085E3,4.8448687E3,1.2357077E4,6.1557255E1,7.596528E3,4.6750913E3,1.697773E2,2.8775332E3,9.479543E3,7.559001E3,3.7526722E1,4.4496743E3,2.2541684E2,1.3948643E2,3.0290861E1,2.4351018E3,4.424315E2,2.3185784E3,7.1609653E3],"tree_param":{"num_deleted":"0","num_feature":"29","num_nodes":"23","size_leaf_vector":"1"}},{"base_weights":[9.908749E-2,6.844964E-1,-4.7743997E-1,2.1090133E-1,1.0403541E0,-6.8064094E-1,5.10161E-1,-1.2280617E0,3.3011463E-1,9.36168E-1,2.5522275E0,-1.456525E-1,-9.768728E-1,8.9234626E-1,-1.3129814E0,-1.12156056E-1,-1.3746436E-1,7.443454E-3,8.848512E-2,9.793948E-2,-1.592724E-1,2.8678662E-1,-1.3356674E-1,6.301675E-2,-8.582216E-2,1.0951227E-1,-1.0383787E-1,-6.082642E-2,1.3242196E-1,-1.6514093E-1,-1.2472433E-1],"categories":[],"categories_nodes":[],"categories_segments":[],"categories_sizes":[],"default_left":[0,0,0,0,0,0,0,0,0,0,0,0,0,0,0,0,0,0,0,0,0,0,0,0,0,0,0,0,0,0,0],"id":24,"left_children":[1,3,5,7,9,11,13,15,17,19,21,23,25,27,29,-1,-1,-1,-1,-1,-1,-1,-1,-1,-1,-1,-1,-1,-1,-1,-1],"loss_changes":[7.822946E3,1.9380303E3,2.3439229E3,8.470387E2,1.0319185E3,1.5348608E3,1.3900912E3,4.356262E0,6.4650037E2,6.732622E2,5.22615E2,1.9094458E3,7.9556494E2,1.06915E3,5.6347656E0,0E0,0E0,0E0,0E0,0E0,0E0,0E0,0E0,0E0,0E0,0E0,0E0,0E0,0E0,0E0,0E0],"parents":[2147483647,0,0,1,1,2,2,3,3,4,4,5,5,6,6,7,7,8,8,9,9,10,10,11,11,12,12,13,13,14,14],"right_children":[2,4,6,8,10,12,14,16,18,20,22,24,26,28,30,-1,-1,-1,-1,-1,-1,-1,-1,-1,-1,-1,-1,-1,-1,-1,-1],"split_conditions":[-8.069166E-1,1.4751992E0,2.7407496E0,-9.959347E-1,-1.0979663E0,-3.2233852E-1,4.2283344E-1,6.403683E-1,2.0353515E0,3.1570253E-1,-5.4359263E-1,-1.6021086E-1,-2.450811E0,-4.297881E-1,-3.6499473E-1,-1.12156056E-1,-1.3746436E-1,7.443454E-3,8.848512E-2,9.793948E-2,-1.592724E-1,2.8678662E-1,-1.3356674E-1,6.301675E-2,-8.582216E-2,1.0951227E-1,-1.0383787E-1,-6.082642E-2,1.3242196E-1,-1.6514093E-1,-1.2472433E-1],"split_indices":[13,10,3,10,13,25,15,3,3,11,9,7,18,0,7,0,0,0,0,0,0,0,0,0,0,0,0,0,0,0,0],"split_type":[0,0,0,0,0,0,0,0,0,0,0,0,0,0,0,0,0,0,0,0,0,0,0,0,0,0,0,0,0,0,0],"sum_hessian":[2.3176834E4,1.1499746E4,1.1677088E4,4.9343853E3,6.5653604E3,9.684742E3,1.9923453E3,3.768094E2,4.557576E3,6.143612E3,4.2174884E2,3.4519985E3,6.232744E3,1.6474922E3,3.448532E2,2.2325314E2,1.5355626E2,3.1204731E3,1.4371029E3,6.0409653E3,1.0264631E2,3.9032285E2,3.1425987E1,1.6527062E3,1.7992924E3,1.7919695E2,6.0535474E3,3.680919E2,1.2794003E3,5.216754E1,2.9268567E2],"tree_param":{"num_deleted":"0","num_feature":"29","num_nodes":"31","size_leaf_vector":"1"}},{"base_weights":[9.570586E-2,-3.7552083E-1,7.4072903E-1,-1.0736839E0,-1.02294736E-1,9.295792E-1,-2.4718668E-1,-1.2645637E0,-1.06383406E-1,4.4189173E-1,-5.865694E-1,1.0674839E0,1.520951E-1,1.055696E0,-7.594013E-1,-1.5574265E-1,-1.1723454E-1,9.573543E-2,-9.948735E-3,7.5173005E-3,-1.0075333E-1,1.0082922E-1,2.2025175E-1,1.3543986E-1,-9.421237E-2,1.13927625E-1,-1.23600535E-1,1.144351E-1,-1.1431085E-1],"categories":[],"categories_nodes":[],"categories_segments":[],"categories_sizes":[],"default_left":[0,0,0,0,0,0,0,0,0,0,0,0,0,0,0,0,0,0,0,0,0,0,0,0,0,0,0,0,0],"id":25,"left_children":[1,3,5,7,9,11,13,15,-1,17,19,21,23,25,27,-1,-1,-1,-1,-1,-1,-1,-1,-1,-1,-1,-1,-1,-1],"loss_changes":[6.5622275E3,2.3797075E3,1.700623E3,5.251953E0,2.3635723E3,8.2023535E2,9.7743427E2,2.681244E0,0E0,1.1786313E3,1.322025E3,4.3439404E2,1.5193214E3,8.05903E1,7.690762E2,0E0,0E0,0E0,0E0,0E0,0E0,0E0,0E0,0E0,0E0,0E0,0E0,0E0,0E0],"parents":[2147483647,0,0,1,1,2,2,3,3,4,4,5,5,6,6,7,7,9,9,10,10,11,11,12,12,13,13,14,14],"right_children":[2,4,6,8,10,12,14,16,-1,18,20,22,24,26,28,-1,-1,-1,-1,-1,-1,-1,-1,-1,-1,-1,-1,-1,-1],"split_conditions":[1.0303894E0,-2.1900374E-2,-5.82934E-2,-1.7859976E0,-4.254906E-1,2.5552018E-2,-1.6455544E0,-1.4909433E0,-1.06383406E-1,-1.280624E-1,-8.6922354E-1,1.1156112E0,-3.4707233E-1,-4.8273034E-2,-3.5256164E0,-1.5574265E-1,-1.1723454E-1,9.573543E-2,-9.948735E-3,7.5173005E-3,-1.0075333E-1,1.0082922E-1,2.2025175E-1,1.3543986E-1,-9.421237E-2,1.13927625E-1,-1.23600535E-1,1.144351E-1,-1.1431085E-1],"split_indices":[10,3,8,13,13,11,6,9,0,22,10,2,28,2,11,0,0,0,0,0,0,0,0,0,0,0,0,0,0],"split_type":[0,0,0,0,0,0,0,0,0,0,0,0,0,0,0,0,0,0,0,0,0,0,0,0,0,0,0,0,0],"sum_hessian":[2.1587758E4,1.2474691E4,9.113065E3,3.5079775E3,8.966715E3,7.650629E3,1.4624365E3,1.6588472E2,3.3420928E3,4.2222256E3,4.744489E3,6.4977334E3,1.1528956E3,4.1239548E2,1.0500411E3,3.5920753E1,1.2996397E2,2.1624893E3,2.0597366E3,1.8450103E3,2.8994783E3,6.1774683E3,3.2026495E2,5.492043E2,6.036913E2,3.9836948E2,1.4025995E1,1.7580537E2,8.742357E2],"tree_param":{"num_deleted":"0","num_feature":"29","num_nodes":"29","size_leaf_vector":"1"}},{"base_weights":[5.3126533E-2,1.0050554E0,-2.4690495E-1,1.0147525E0,-1.7610394E0,1.3797946E-1,-5.466135E-1,1.0199952E0,-1.17705144E-1,-4.0847984E-1,-1.1862111E-1,-8.25368E-1,3.3484736E-1,-8.316643E-1,2.836429E-1,-2.9238713E-1,1.0225779E-1,-1.0808394E-1,5.6254037E-2,-5.223627E-2,5.4340225E-2,-9.420325E-2,9.931928E-2,-2.820657E-2,1.288477E-1],"categories":[],"categories_nodes":[],"categories_segments":[],"categories_sizes":[],"default_left":[0,0,0,0,0,0,0,0,0,0,0,0,0,0,0,0,0,0,0,0,0,0,0,0,0],"id":26,"left_children":[1,3,5,7,9,11,13,15,-1,-1,-1,17,19,21,23,-1,-1,-1,-1,-1,-1,-1,-1,-1,-1],"loss_changes":[5.767945E3,1.3160449E2,1.771396E3,5.6626953E1,1.8227253E1,1.2753751E3,2.0434331E3,5.2010254E1,0E0,0E0,0E0,4.0521692E2,9.9842834E2,1.2953789E3,1.255056E3,0E0,0E0,0E0,0E0,0E0,0E0,0E0,0E0,0E0,0E0],"parents":[2147483647,0,0,1,1,2,2,3,3,4,4,5,5,6,6,7,7,11,11,12,12,13,13,14,14],"right_children":[2,4,6,8,10,12,14,16,-1,-1,-1,18,20,22,24,-1,-1,-1,-1,-1,-1,-1,-1,-1,-1],"split_conditions":[-3.6156354E0,1.7610687E0,-4.254906E-1,4.5401925E-1,-4.4597498E-1,-2.7838778E-1,9.702027E-1,1.3868655E-1,-1.17705144E-1,-4.0847984E-1,-1.1862111E-1,1.327541E0,-8.609846E-1,3.0202103E0,6.777285E-1,-2.9238713E-1,1.0225779E-1,-1.0808394E-1,5.6254037E-2,-5.223627E-2,5.4340225E-2,-9.420325E-2,9.931928E-2,-2.820657E-2,1.288477E-1],"split_indices":[13,6,13,9,8,3,13,10,0,0,0,10,5,6,20,0,0,0,0,0,0,0,0,0,0],"split_type":[0,0,0,0,0,0,0,0,0,0,0,0,0,0,0,0,0,0,0,0,0,0,0,0,0],"sum_hessian":[2.0193404E4,4.838773E3,1.5354632E4,4.8225E3,1.6273052E1,6.722354E3,8.632277E3,4.811526E3,1.0974179E1,2.0162375E0,1.4256815E1,1.1401222E3,5.582232E3,6.426034E3,2.2062437E3,2.408676E0,4.809117E3,9.630714E2,1.7705072E2,1.0920682E3,4.4901636E3,6.0600063E3,3.6602786E2,1.412016E3,7.942275E2],"tree_param":{"num_deleted":"0","num_feature":"29","num_nodes":"25","size_leaf_vector":"1"}},{"base_weights":[1.2674837E-1,1.0069586E0,-1.6071722E-1,1.0217569E0,-1.4593961E0,-9.237717E-1,8.771879E-3,1.040523E0,5.1711595E-1,-2.3045833E-1,-1.2138245E-1,-1.0536767E0,1.0021304E0,3.4161082E-1,-4.4899485E-1,1.0429467E-1,-3.6898878E-1,9.462767E-2,-3.0199817E-1,-1.1517202E-1,-1.0486144E-1,-1.12782516E-1,1.5109667E-1,4.3942764E-2,-1.4595199E-1,1.0828628E-2,-9.3805715E-2],"categories":[],"categories_nodes":[],"categories_segments":[],"categories_sizes":[],"default_left":[0,0,0,0,0,0,0,0,0,0,0,0,0,0,0,0,0,0,0,0,0,0,0,0,0,0,0],"id":27,"left_children":[1,3,5,7,9,11,13,15,17,-1,-1,19,21,23,25,-1,-1,-1,-1,-1,-1,-1,-1,-1,-1,-1,-1],"loss_changes":[5.046435E3,1.8069287E2,1.9444044E3,4.568799E1,3.3661575E0,6.84687E2,1.8746613E3,5.779297E1,2.7153833E2,0E0,0E0,6.323242E-2,1.8939407E2,1.2557649E3,1.4118518E3,0E0,0E0,0E0,0E0,0E0,0E0,0E0,0E0,0E0,0E0,0E0,0E0],"parents":[2147483647,0,0,1,1,2,2,3,3,4,4,5,5,6,6,7,7,8,8,11,11,12,12,13,13,14,14],"right_children":[2,4,6,8,10,12,14,16,18,-1,-1,20,22,24,26,-1,-1,-1,-1,-1,-1,-1,-1,-1,-1,-1,-1],"split_conditions":[-3.6156354E0,-4.457459E-2,-4.5871922E-1,7.6753706E-1,4.223826E-1,3.0202103E0,2.5552018E-2,1.9360064E0,-1.4160796E0,-2.3045833E-1,-1.2138245E-1,-1.7859976E0,-7.825958E-1,1.347566E0,-2.0452185E-1,1.0429467E-1,-3.6898878E-1,9.462767E-2,-3.0199817E-1,-1.1517202E-1,-1.0486144E-1,-1.12782516E-1,1.5109667E-1,4.3942764E-2,-1.4595199E-1,1.0828628E-2,-9.3805715E-2],"split_indices":[13,9,3,6,9,6,11,15,11,0,0,13,0,17,21,0,0,0,0,0,0,0,0,0,0,0,0],"split_type":[0,0,0,0,0,0,0,0,0,0,0,0,0,0,0,0,0,0,0,0,0,0,0,0,0,0,0],"sum_hessian":[1.9942367E4,4.908918E3,1.5033448E4,4.8802217E3,2.8696018E1,2.7315093E3,1.2301939E4,4.7042236E3,1.759984E2,4.572884E0,2.4123135E1,2.5593313E3,1.7217789E2,7.1230635E3,5.1788755E3,4.7025938E3,1.6298764E0,1.5760808E2,1.8390324E1,1.14536995E2,2.4447942E3,3.2966362E1,1.3921152E2,6.7568643E3,3.661995E2,2.420977E3,2.7578984E3],"tree_param":{"num_deleted":"0","num_feature":"29","num_nodes":"27","size_leaf_vector":"1"}},{"base_weights":[4.6854474E-2,-4.007867E-1,6.56974E-1,1.2892534E-1,-7.888531E-1,1.1917199E-2,9.3742156E-1,5.2402717E-1,-6.458462E-1,3.7914103E-1,-9.8401386E-1,8.2178473E-1,-6.6834736E-1,8.8745224E-1,2.8263085E0,1.0498732E-1,-2.9089713E-2,-1.06575444E-1,8.485934E-2,1.0199463E-1,-1.2219908E-1,-1.0890865E-1,4.856223E-2,1.0445078E-1,-1.3028337E-1,7.33951E-2,-1.3171814E-1,1.05026E-1,2.3404239E-2,-1.256539E-1,3.8867173E-1],"categories":[],"categories_nodes":[],"categories_segments":[],"categories_sizes":[],"default_left":[0,0,0,0,0,0,0,0,0,0,0,0,0,0,0,0,0,0,0,0,0,0,0,0,0,0,0,0,0,0,0],"id":28,"left_children":[1,3,5,7,9,11,13,15,17,19,21,23,25,27,29,-1,-1,-1,-1,-1,-1,-1,-1,-1,-1,-1,-1,-1,-1,-1,-1],"loss_changes":[5.022014E3,2.1803657E3,1.4077324E3,1.373423E3,1.3958035E3,1.3001963E3,5.0941162E2,1.2735326E3,9.518286E2,9.012267E2,8.1054395E2,5.1117712E2,1.1680011E3,5.620093E2,6.080856E2,0E0,0E0,0E0,0E0,0E0,0E0,0E0,0E0,0E0,0E0,0E0,0E0,0E0,0E0,0E0,0E0],"parents":[2147483647,0,0,1,1,2,2,3,3,4,4,5,5,6,6,7,7,8,8,9,9,10,10,11,11,12,12,13,13,14,14],"right_children":[2,4,6,8,10,12,14,16,18,20,22,24,26,28,30,-1,-1,-1,-1,-1,-1,-1,-1,-1,-1,-1,-1,-1,-1,-1,-1],"split_conditions":[1.620582E0,-5.5191195E-1,5.0019497E-1,-6.485516E-1,-5.5458134E-1,-3.9941266E-1,1.2368379E0,-3.166416E-1,2.4990346E0,-5.094078E-1,1.5572423E0,-4.3405853E-2,-3.5015085E-1,-2.0220034E0,1.074045E0,1.0498732E-1,-2.9089713E-2,-1.06575444E-1,8.485934E-2,1.0199463E-1,-1.2219908E-1,-1.0890865E-1,4.856223E-2,1.0445078E-1,-1.3028337E-1,7.33951E-2,-1.3171814E-1,1.05026E-1,2.3404239E-2,-1.256539E-1,3.8867173E-1],"split_indices":[3,9,10,13,19,5,11,11,6,21,12,11,28,11,0,0,0,0,0,0,0,0,0,0,0,0,0,0,0,0,0],"split_type":[0,0,0,0,0,0,0,0,0,0,0,0,0,0,0,0,0,0,0,0,0,0,0,0,0,0,0,0,0,0,0],"sum_hessian":[1.838597E4,1.0605281E4,7.78069E3,4.4845386E3,6.1207427E3,2.3580308E3,5.422659E3,2.9701875E3,1.5143508E3,8.7616205E2,5.2445806E3,1.0763766E3,1.2816542E3,5.284335E3,1.3832407E2,1.8051138E3,1.1650737E3,1.182405E3,3.3194577E2,6.259909E2,2.5017119E2,4.894877E3,3.4970364E2,9.747067E2,1.0166982E2,4.0538373E2,8.7627045E2,4.229803E3,1.0545321E3,2.8480778E1,1.09843285E2],"tree_param":{"num_deleted":"0","num_feature":"29","num_nodes":"31","size_leaf_vector":"1"}},{"base_weights":[1.5708189E-1,-1.8102993E-1,7.992113E-1,1.9360726E-1,-5.358396E-1,9.355026E-1,-6.068993E-1,-5.085963E-1,5.166592E-1,-7.8863496E-1,6.5963084E-1,1.0968399E0,1.3005544E-1,-1.2627665E0,1.1566905E0,-1.051409E-1,5.350265E-2,-1.1661016E-1,6.808223E-2,5.7471436E-2,-8.95545E-2,-1.17184065E-1,1.3828659E-1,1.0450994E-1,2.921279E-1,6.8751924E-2,-1.2946603E-1,-1.5037358E-1,-1.1677786E-1,-1.288625E-1,1.505426E-1],"categories":[],"categories_nodes":[],"categories_segments":[],"categories_sizes":[],"default_left":[0,0,0,0,0,0,0,0,0,0,0,0,0,0,0,0,0,0,0,0,0,0,0,0,0,0,0,0,0,0,0],"id":29,"left_children":[1,3,5,7,9,11,13,15,17,19,21,23,25,27,29,-1,-1,-1,-1,-1,-1,-1,-1,-1,-1,-1,-1,-1,-1,-1,-1],"loss_changes":[3.9604553E3,1.5885474E3,1.2063635E3,1.3189978E3,1.855373E3,7.4529297E2,6.4524994E2,1.0385103E3,1.1008252E3,7.3902515E2,1.4214056E3,4.4806787E2,7.6209686E2,7.5411987E0,1.3104971E2,0E0,0E0,0E0,0E0,0E0,0E0,0E0,0E0,0E0,0E0,0E0,0E0,0E0,0E0,0E0,0E0],"parents":[2147483647,0,0,1,1,2,2,3,3,4,4,5,5,6,6,7,7,8,8,9,9,10,10,11,11,12,12,13,13,14,14],"right_children":[2,4,6,8,10,12,14,16,18,20,22,24,26,28,30,-1,-1,-1,-1,-1,-1,-1,-1,-1,-1,-1,-1,-1,-1,-1,-1],"split_conditions":[2.4474049E0,-4.254906E-1,8.682013E-1,-8.550527E-2,1.278442E0,4.2283344E-1,1.1736002E0,6.173197E-2,-8.085281E-1,-1.6409154E0,1.614693E-1,8.542331E-1,-9.9395156E-1,-1.382545E-1,5.8749056E-1,-1.051409E-1,5.350265E-2,-1.1661016E-1,6.808223E-2,5.7471436E-2,-8.95545E-2,-1.17184065E-1,1.3828659E-1,1.0450994E-1,2.921279E-1,6.8751924E-2,-1.2946603E-1,-1.5037358E-1,-1.1677786E-1,-1.288625E-1,1.505426E-1],"split_indices":[3,13,2,20,6,15,21,28,10,18,14,2,13,7,24,0,0,0,0,0,0,0,0,0,0,0,0,0,0,0,0],"split_type":[0,0,0,0,0,0,0,0,0,0,0,0,0,0,0,0,0,0,0,0,0,0,0,0,0,0,0,0,0,0,0],"sum_hessian":[1.82399E4,1.1948934E4,6.2909663E3,5.8122925E3,6.1366416E3,5.735383E3,5.5558344E2,1.831238E3,3.9810544E3,5.065769E3,1.0708722E3,4.7779585E3,9.574242E2,4.051827E2,1.5040074E2,1.2046592E3,6.265789E2,3.533119E2,3.6277427E3,3.6803964E2,4.6977295E3,3.0298734E2,7.678848E2,4.6477236E3,1.3023508E2,6.885322E2,2.6889197E2,1.1036733E2,2.9481537E2,1.8435663E1,1.3196507E2],"tree_param":{"num_deleted":"0","num_feature":"29","num_nodes":"31","size_leaf_vector":"1"}},{"base_weights":[1.073332E-1,-2.6974055E-1,6.8890154E-1,-4.774573E-1,4.9575928E-1,-8.924255E-2,9.860638E-1,-1.3808077E-2,-8.2530785E-1,1.7709857E0,-1.1591723E-1,-5.40507E-1,9.2644763E-1,1.0299795E0,-1.2411255E-1,5.1039435E-2,-1.3547926E-1,9.857922E-2,-9.326724E-2,-2.1294814E-2,2.197113E-1,6.7557305E-2,-1.1213162E-1,-1.1030289E-1,4.8690878E-2,-1.5881209E-1,1.16755106E-1,1.0515376E-1,-1.463723E-1],"categories":[],"categories_nodes":[],"categories_segments":[],"categories_sizes":[],"default_left":[0,0,0,0,0,0,0,0,0,0,0,0,0,0,0,0,0,0,0,0,0,0,0,0,0,0,0,0,0],"id":30,"left_children":[1,3,5,7,9,11,13,15,17,19,21,23,25,27,-1,-1,-1,-1,-1,-1,-1,-1,-1,-1,-1,-1,-1,-1,-1],"loss_changes":[3.6760056E3,1.6172692E3,1.5247339E3,1.2901604E3,1.6936511E3,8.3608014E2,4.679668E2,2.4118247E3,8.8964624E2,5.9549805E2,1.1690775E3,7.304026E2,3.420759E2,2.531206E2,0E0,0E0,0E0,0E0,0E0,0E0,0E0,0E0,0E0,0E0,0E0,0E0,0E0,0E0,0E0],"parents":[2147483647,0,0,1,1,2,2,3,3,4,4,5,5,6,6,7,7,8,8,9,9,10,10,11,11,12,12,13,13],"right_children":[2,4,6,8,10,12,14,16,18,20,22,24,26,28,-1,-1,-1,-1,-1,-1,-1,-1,-1,-1,-1,-1,-1,-1,-1],"split_conditions":[1.8959074E0,3.2355127E-1,6.1035293E-1,-6.485516E-1,-1.3385137E0,2.5466412E-1,1.2034454E0,2.2414032E-2,-1.3991737E0,-8.292935E-2,-3.3610922E-1,1.1316025E0,4.5996126E-2,1.3374665E0,-1.2411255E-1,5.1039435E-2,-1.3547926E-1,9.857922E-2,-9.326724E-2,-2.1294814E-2,2.197113E-1,6.7557305E-2,-1.1213162E-1,-1.1030289E-1,4.8690878E-2,-1.5881209E-1,1.16755106E-1,1.0515376E-1,-1.463723E-1],"split_indices":[3,20,10,13,12,27,2,26,19,11,11,6,2,13,0,0,0,0,0,0,0,0,0,0,0,0,0,0,0],"split_type":[0,0,0,0,0,0,0,0,0,0,0,0,0,0,0,0,0,0,0,0,0,0,0,0,0,0,0,0,0],"sum_hessian":[1.6761049E4,1.0168559E4,6.592491E3,7.998546E3,2.1700122E3,1.8220365E3,4.770455E3,3.429034E3,4.569512E3,7.028375E2,1.4671747E3,1.2618657E3,5.601708E2,4.6787373E3,9.17176E1,2.4657646E3,9.632693E2,2.5526933E2,4.3142427E3,1.2435842E2,5.7847906E2,8.211E2,6.460747E2,8.1536847E2,4.464972E2,4.8522495E1,5.116483E2,4.6392095E3,3.95279E1],"tree_param":{"num_deleted":"0","num_feature":"29","num_nodes":"29","size_leaf_vector":"1"}},{"base_weights":[5.568997E-2,9.6348274E-1,-2.2213618E-1,-1.0445634E-1,9.874838E-1,-1.04284704E-1,-6.821052E-2,1.0006229E0,-1.5760545E0,-4.8621517E-1,1.9690408E-1,-1.2232291E-1,1.0099733E-1,-2.0740822E-1,-1.2674667E-1,-1.0001266E-1,3.3311702E-2,8.823543E-2,-1.3051516E-2],"categories":[],"categories_nodes":[],"categories_segments":[],"categories_sizes":[],"default_left":[0,0,0,0,0,0,0,0,0,0,0,0,0,0,0,0,0,0,0],"id":31,"left_children":[1,3,5,-1,7,-1,9,11,13,15,17,-1,-1,-1,-1,-1,-1,-1,-1],"loss_changes":[3.940551E3,1.7748438E2,1.5112122E3,0E0,1.23456055E2,0E0,1.116581E3,7.610718E1,2.665558E-1,1.6468099E3,1.3838507E3,0E0,0E0,0E0,0E0,0E0,0E0,0E0,0E0],"parents":[2147483647,0,0,1,1,2,2,4,4,6,6,7,7,8,8,9,9,10,10],"right_children":[2,4,6,-1,8,-1,10,12,14,16,18,-1,-1,-1,-1,-1,-1,-1,-1],"split_conditions":[-2.0208135E0,-4.8604634E-1,-4.5871922E-1,-1.0445634E-1,6.191318E0,-1.04284704E-1,7.882799E-3,-5.3077763E-1,-3.623748E-1,4.1337162E-1,-3.4707233E-1,-1.2232291E-1,1.0099733E-1,-2.0740822E-1,-1.2674667E-1,-1.0001266E-1,3.3311702E-2,8.823543E-2,-1.3051516E-2],"split_indices":[9,3,3,0,28,0,27,10,13,5,28,0,0,0,0,0,0,0,0],"split_type":[0,0,0,0,0,0,0,0,0,0,0,0,0,0,0,0,0,0,0],"sum_hessian":[1.5622328E4,3.660203E3,1.1962125E4,4.272951E1,3.6174734E3,1.8882826E3,1.0073843E4,3.5996335E3,1.783971E1,3.909276E3,6.1645664E3,1.4528145E1,3.5851055E3,4.636189E0,1.3203521E1,2.4022727E3,1.5070032E3,1.9922042E3,4.1723623E3],"tree_param":{"num_deleted":"0","num_feature":"29","num_nodes":"19","size_leaf_vector":"1"}},{"base_weights":[4.0672764E-2,9.684868E-1,-1.9210252E-1,9.9854565E-1,-2.8340808E-1,-7.4062264E-1,5.038352E-2,1.0016104E0,-9.464897E-2,-2.2436686E0,8.7245524E-1,-8.685323E-1,8.237101E-1,1.3022956E-1,-1.8291105E0,1.0146611E-1,7.27906E-2,-3.8980785E-1,-1.3348393E-1,1.00221395E-1,-1.0755604E-1,-9.657787E-2,1.1720779E-1,-1.1866593E-1,1.3191013E-1,6.2780835E-2,-1.6258338E-2,-2.2562356E-1,-1.1743864E-1],"categories":[],"categories_nodes":[],"categories_segments":[],"categories_sizes":[],"default_left":[0,0,0,0,0,0,0,0,0,0,0,0,0,0,0,0,0,0,0,0,0,0,0,0,0,0,0,0,0],"id":32,"left_children":[1,3,5,7,9,11,13,15,-1,17,19,21,23,25,27,-1,-1,-1,-1,-1,-1,-1,-1,-1,-1,-1,-1,-1,-1],"loss_changes":[3.2239705E3,1.1294849E2,1.5873416E3,1.8378174E1,1.6278577E2,7.327434E2,1.2422826E3,9.691406E0,0E0,3.4805298E1,1.2546726E1,6.7234106E2,2.7747412E2,1.156952E3,9.168799E1,0E0,0E0,0E0,0E0,0E0,0E0,0E0,0E0,0E0,0E0,0E0,0E0,0E0,0E0],"parents":[2147483647,0,0,1,1,2,2,3,3,4,4,5,5,6,6,7,7,9,9,10,10,11,11,12,12,13,13,14,14],"right_children":[2,4,6,8,10,12,14,16,-1,18,20,22,24,26,28,-1,-1,-1,-1,-1,-1,-1,-1,-1,-1,-1,-1,-1,-1],"split_conditions":[-3.6156354E0,1.1079726E0,3.1228277E-1,5.767415E-1,4.390333E-1,3.0202103E0,1.347566E0,6.572287E-1,-9.464897E-2,-5.1849395E-1,-1.7696148E0,1.7888348E0,-7.6918113E-1,-5.290515E-1,-1.3363411E0,1.0146611E-1,7.27906E-2,-3.8980785E-1,-1.3348393E-1,1.00221395E-1,-1.0755604E-1,-9.657787E-2,1.1720779E-1,-1.1866593E-1,1.3191013E-1,6.2780835E-2,-1.6258338E-2,-2.2562356E-1,-1.1743864E-1],"split_indices":[13,6,3,9,25,6,17,6,0,8,9,21,0,11,13,0,0,0,0,0,0,0,0,0,0,0,0,0,0],"split_type":[0,0,0,0,0,0,0,0,0,0,0,0,0,0,0,0,0,0,0,0,0,0,0,0,0,0,0,0,0],"sum_hessian":[1.492585E4,2.992991E3,1.1932858E4,2.92301E3,6.9981E1,3.657435E3,8.275424E3,2.9188958E3,4.114232E0,2.5608953E1,4.437205E1,3.3813958E3,2.760393E2,7.9390806E3,3.3634317E2,2.7834678E3,1.3542778E2,7.913781E0,1.7695173E1,4.205618E1,2.3158727E0,3.2280862E3,1.533094E2,5.4297348E1,2.2174194E2,2.9407324E3,4.998348E3,2.0207109E2,1.3427206E2],"tree_param":{"num_deleted":"0","num_feature":"29","num_nodes":"29","size_leaf_vector":"1"}},{"base_weights":[1.5473562E-1,-1.5942934E-1,6.7774355E-1,1.6157594E-1,-5.880424E-1,8.649655E-1,-2.2733442E-1,4.672727E-1,-8.0991626E-1,-7.723722E-1,1.2485725E0,9.610686E-1,-1.6729188E-1,8.5085875E-1,-7.9058474E-1,-1.13572516E-1,6.872896E-2,-1.07861854E-1,1.1109143E-1,-1.0819258E-1,-6.7851925E-3,-1.1211578E-1,1.760441E-1,1.00457326E-1,-1.1978455E-1,-1.9732039E-1,7.362165E-2,1.0989882E-1,-1.6505791E-1,-1.1004312E-1,1.11298196E-1],"categories":[],"categories_nodes":[],"categories_segments":[],"categories_sizes":[],"default_left":[0,0,0,0,0,0,0,0,0,0,0,0,0,0,0,0,0,0,0,0,0,0,0,0,0,0,0,0,0,0,0],"id":33,"left_children":[1,3,5,7,9,11,13,15,17,19,21,23,25,27,29,-1,-1,-1,-1,-1,-1,-1,-1,-1,-1,-1,-1,-1,-1,-1,-1],"loss_changes":[2.4924768E3,1.3040243E3,9.647942E2,1.6098921E3,1.3749594E3,4.6810254E2,5.9369165E2,1.454915E3,6.709028E2,8.0444727E2,4.5146185E2,4.065183E2,6.5836084E2,2.1008928E2,3.7984738E2,0E0,0E0,0E0,0E0,0E0,0E0,0E0,0E0,0E0,0E0,0E0,0E0,0E0,0E0,0E0,0E0],"parents":[2147483647,0,0,1,1,2,2,3,3,4,4,5,5,6,6,7,7,8,8,9,9,10,10,11,11,12,12,13,13,14,14],"right_children":[2,4,6,8,10,12,14,16,18,20,22,24,26,28,30,-1,-1,-1,-1,-1,-1,-1,-1,-1,-1,-1,-1,-1,-1,-1,-1],"split_conditions":[1.0303894E0,-1.1814422E-1,-2.8116187E-2,8.30052E-2,1.2022438E0,1.7192266E0,-2.456608E0,-3.4309378E-1,4.2310384E-1,2.6378825E0,1.2129052E0,8.01032E-1,1.8959074E0,2.373925E-1,2.596892E0,-1.13572516E-1,6.872896E-2,-1.07861854E-1,1.1109143E-1,-1.0819258E-1,-6.7851925E-3,-1.1211578E-1,1.760441E-1,1.00457326E-1,-1.1978455E-1,-1.9732039E-1,7.362165E-2,1.0989882E-1,-1.6505791E-1,-1.1004312E-1,1.11298196E-1],"split_indices":[10,25,8,7,25,16,11,17,27,3,18,13,3,17,13,0,0,0,0,0,0,0,0,0,0,0,0,0,0,0,0],"split_type":[0,0,0,0,0,0,0,0,0,0,0,0,0,0,0,0,0,0,0,0,0,0,0,0,0,0,0,0,0,0,0],"sum_hessian":[1.5167628E4,9.476123E3,5.691505E3,5.4185664E3,4.0575562E3,4.716009E3,9.754962E2,4.122021E3,1.2965458E3,3.6879941E3,3.695619E2,4.3144067E3,4.01602E2,3.3455975E2,6.409364E2,4.9697818E2,3.6250427E3,1.1378167E3,1.5872916E2,2.5618345E3,1.1261597E3,6.543515E1,3.0412674E2,4.229708E3,8.469887E1,1.3352711E2,2.680749E2,3.0487814E2,2.9681639E1,5.515773E2,8.935916E1],"tree_param":{"num_deleted":"0","num_feature":"29","num_nodes":"31","size_leaf_vector":"1"}},{"base_weights":[1.0707336E-1,-1.831793E-1,6.919193E-1,2.0346928E-1,-6.017792E-1,8.331608E-1,-4.1298872E-1,-4.1989186E-1,4.6870178E-1,5.3315634E-1,-8.4062207E-1,8.9448166E-1,-1.4001064E0,9.468111E-1,-1.2166147E0,1.3271357E-1,-7.451783E-2,6.957672E-2,-4.2452987E-2,1.295428E-1,-1.0777751E-1,1.9196063E-2,-1.0232244E-1,9.968236E-2,2.4973305E-2,-1.5887319E-1,-1.2512574E-1,-1.432531E-1,1.269076E-1,-1.4346623E-1,-1.1351599E-1],"categories":[],"categories_nodes":[],"categories_segments":[],"categories_sizes":[],"default_left":[0,0,0,0,0,0,0,0,0,0,0,0,0,0,0,0,0,0,0,0,0,0,0,0,0,0,0,0,0,0,0],"id":34,"left_children":[1,3,5,7,9,11,13,15,17,19,21,23,25,27,29,-1,-1,-1,-1,-1,-1,-1,-1,-1,-1,-1,-1,-1,-1,-1,-1],"loss_changes":[2.4394744E3,1.5546262E3,7.441897E2,8.258106E2,1.2506208E3,5.8005884E2,5.9224036E2,8.483207E2,7.108877E2,9.867681E2,7.1867944E2,2.712251E2,1.1942902E0,1.563147E2,4.4176025E0,0E0,0E0,0E0,0E0,0E0,0E0,0E0,0E0,0E0,0E0,0E0,0E0,0E0,0E0,0E0,0E0],"parents":[2147483647,0,0,1,1,2,2,3,3,4,4,5,5,6,6,7,7,8,8,9,9,10,10,11,11,12,12,13,13,14,14],"right_children":[2,4,6,8,10,12,14,16,18,20,22,24,26,28,30,-1,-1,-1,-1,-1,-1,-1,-1,-1,-1,-1,-1,-1,-1,-1,-1],"split_conditions":[2.4474049E0,-4.6571037E-1,8.682013E-1,-8.550527E-2,-1.5005354E0,1.0414847E0,-1.8798271E0,-2.150176E0,4.70078E-2,-7.448474E-1,-3.4807187E-1,1.1034746E0,-2.828233E-1,6.3544345E-1,-1.1222884E-1,1.3271357E-1,-7.451783E-2,6.957672E-2,-4.2452987E-2,1.295428E-1,-1.0777751E-1,1.9196063E-2,-1.0232244E-1,9.968236E-2,2.4973305E-2,-1.5887319E-1,-1.2512574E-1,-1.432531E-1,1.269076E-1,-1.4346623E-1,-1.1351599E-1],"split_indices":[3,13,2,20,12,13,7,15,26,1,28,9,7,10,7,0,0,0,0,0,0,0,0,0,0,0,0,0,0,0,0],"split_type":[0,0,0,0,0,0,0,0,0,0,0,0,0,0,0,0,0,0,0,0,0,0,0,0,0,0,0,0,0,0,0],"sum_hessian":[1.4368976E4,9.603533E3,4.765442E3,4.9925625E3,4.610971E3,4.2255337E3,5.3990814E2,1.4900345E3,3.502528E3,8.014416E2,3.8095295E3,4.1131934E3,1.1234027E2,2.0048805E2,3.3942007E2,2.334039E2,1.2566306E3,2.7928008E3,7.0972723E2,5.441519E2,2.5728964E2,5.7243933E2,3.23709E3,3.5492668E3,5.639265E2,4.528303E1,6.705724E1,2.3504532E1,1.7698352E2,8.779295E1,2.5162714E2],"tree_param":{"num_deleted":"0","num_feature":"29","num_nodes":"31","size_leaf_vector":"1"}},{"base_weights":[1.9488177E-1,9.6413803E-1,2.3741571E-2,9.715971E-1,-4.232085E0,4.9499118E-1,-2.1836737E-1,9.8468053E-1,-1.1037278E-1,-5.442111E-1,-1.5834756E-1,7.5465703E-1,-5.419208E-1,2.724596E-1,-6.7453325E-1,1.0144474E-1,4.5910865E-2,-1.04091756E-1,8.668924E-2,7.2535716E-2,-1.1664607E-1,4.412821E-2,-1.3574462E-1,-7.76881E-2,1.6193192E-1],"categories":[],"categories_nodes":[],"categories_segments":[],"categories_sizes":[],"default_left":[0,0,0,0,0,0,0,0,0,0,0,0,0,0,0,0,0,0,0,0,0,0,0,0,0],"id":35,"left_children":[1,3,5,7,9,11,13,15,-1,-1,-1,17,19,21,23,-1,-1,-1,-1,-1,-1,-1,-1,-1,-1],"loss_changes":[1.8978022E3,1.0579297E2,1.3456361E3,7.22395E1,4.032837E0,1.0781731E3,1.7446555E3,4.0282227E1,0E0,0E0,0E0,6.461113E2,6.3578296E2,1.0335126E3,9.4939087E2,0E0,0E0,0E0,0E0,0E0,0E0,0E0,0E0,0E0,0E0],"parents":[2147483647,0,0,1,1,2,2,3,3,4,4,5,5,6,6,7,7,11,11,12,12,13,13,14,14],"right_children":[2,4,6,8,10,12,14,16,-1,-1,-1,18,20,22,24,-1,-1,-1,-1,-1,-1,-1,-1,-1,-1],"split_conditions":[-3.6156354E0,1.8975968E0,-6.434785E-1,5.767415E-1,-8.785603E-1,3.4899187E-1,-1.997254E-1,7.6753706E-1,-1.1037278E-1,-5.442111E-1,-1.5834756E-1,-2.7838778E-1,-8.1089115E-1,4.6772346E-1,2.0099978E0,1.0144474E-1,4.5910865E-2,-1.04091756E-1,8.668924E-2,7.2535716E-2,-1.1664607E-1,4.412821E-2,-1.3574462E-1,-7.76881E-2,1.6193192E-1],"split_indices":[13,0,18,9,18,14,7,6,0,0,0,3,11,15,14,0,0,0,0,0,0,0,0,0,0],"split_type":[0,0,0,0,0,0,0,0,0,0,0,0,0,0,0,0,0,0,0,0,0,0,0,0,0],"sum_hessian":[1.4414612E4,2.6224326E3,1.1792179E4,2.6194856E3,2.9471898E0,4.0018293E3,7.7903496E3,2.6035972E3,1.5888322E1,1.2990229E0,1.6481669E0,3.2006E3,8.012293E2,3.7528008E3,4.037549E3,2.4631604E3,1.4043686E2,1.878027E2,3.0127974E3,2.6445404E2,5.3677527E2,3.4012366E3,3.5156427E2,3.8657283E3,1.718208E2],"tree_param":{"num_deleted":"0","num_feature":"29","num_nodes":"25","size_leaf_vector":"1"}},{"base_weights":[2.1778746E-2,9.5300424E-1,-1.7115343E-1,9.624158E-1,-3.887905E0,-4.1273195E-2,-1.1094592E0,9.770896E-1,-1.0758414E-1,-4.525722E-1,-1.2206079E-1,-2.2279476E-1,5.3534794E-1,-1.0602585E-1,-1.1919369E0,1.01357855E-1,5.64412E-2,7.0570695E-4,-1.06034294E-1,8.0538444E-2,-4.1769195E-2,-1.3535056E-1,-1.1255037E-1],"categories":[],"categories_nodes":[],"categories_segments":[],"categories_sizes":[],"default_left":[0,0,0,0,0,0,0,0,0,0,0,0,0,0,0,0,0,0,0,0,0,0,0],"id":36,"left_children":[1,3,5,7,9,11,13,15,-1,-1,-1,17,19,-1,21,-1,-1,-1,-1,-1,-1,-1,-1],"loss_changes":[2.2572688E3,1.019823E2,1.268315E3,6.544141E1,1.9314804E0,9.571392E2,3.871338E0,3.1622314E1,0E0,0E0,0E0,1.3388938E3,5.638072E2,0E0,3.46521E0,0E0,0E0,0E0,0E0,0E0,0E0,0E0,0E0],"parents":[2147483647,0,0,1,1,2,2,3,3,4,4,5,5,6,6,7,7,11,11,12,12,14,14],"right_children":[2,4,6,8,10,12,14,16,-1,-1,-1,18,20,-1,22,-1,-1,-1,-1,-1,-1,-1,-1],"split_conditions":[-3.6156354E0,1.8975968E0,1.2329714E0,5.767415E-1,-8.785603E-1,2.4474049E0,1.3515254E0,5.3382194E-1,-1.0758414E-1,-4.525722E-1,-1.2206079E-1,6.5392725E-2,4.0278202E-1,-1.0602585E-1,-1.4949478E-1,1.01357855E-1,5.64412E-2,7.0570695E-4,-1.06034294E-1,8.0538444E-2,-4.1769195E-2,-1.3535056E-1,-1.1255037E-1],"split_indices":[13,0,2,9,18,3,3,6,0,0,0,19,6,0,7,0,0,0,0,0,0,0,0],"split_type":[0,0,0,0,0,0,0,0,0,0,0,0,0,0,0,0,0,0,0,0,0,0,0],"sum_hessian":[1.2561972E4,2.1552568E3,1.0406715E4,2.1518745E3,3.3824363E0,9.142284E3,1.2644307E3,2.1370103E3,1.486409E1,2.16741E0,1.2150265E0,6.953821E3,2.1884639E3,8.006638E2,4.637668E2,1.9620684E3,1.7494193E2,5.457177E3,1.496644E3,1.7054054E3,4.8305862E2,1.294833E2,3.342835E2],"tree_param":{"num_deleted":"0","num_feature":"29","num_nodes":"23","size_leaf_vector":"1"}},{"base_weights":[1.53852E-1,6.7576385E-1,-7.787922E-2,1.0642432E0,3.3976786E-2,-3.149204E-1,4.7542918E-1,8.635658E-1,1.8850845E0,6.4863837E-1,-7.1881366E-1,-8.6116844E-1,-2.3595333E-2,-7.862043E-3,9.720874E-1,1.0163615E-1,-7.143413E-2,2.3245893E-1,-1.1016867E-1,1.0644299E-1,-1.1478728E-1,7.924555E-2,-1.6319165E-1,5.246801E-2,-1.04121685E-1,3.091068E-1,-1.2508402E-2,-8.431984E-2,7.6475315E-2,-9.847217E-2,1.0799432E-1],"categories":[],"categories_nodes":[],"categories_segments":[],"categories_sizes":[],"default_left":[0,0,0,0,0,0,0,0,0,0,0,0,0,0,0,0,0,0,0,0,0,0,0,0,0,0,0,0,0,0,0],"id":37,"left_children":[1,3,5,7,9,11,13,15,17,19,21,23,25,27,29,-1,-1,-1,-1,-1,-1,-1,-1,-1,-1,-1,-1,-1,-1,-1,-1],"loss_changes":[1.5870515E3,1.0059309E3,1.192106E3,4.123894E2,7.0491315E2,1.01255206E3,6.5434814E2,4.8810046E2,6.4960535E2,6.2765967E2,9.4627734E2,5.5276746E2,1.3124711E3,8.92979E2,2.8481445E2,0E0,0E0,0E0,0E0,0E0,0E0,0E0,0E0,0E0,0E0,0E0,0E0,0E0,0E0,0E0,0E0],"parents":[2147483647,0,0,1,1,2,2,3,3,4,4,5,5,6,6,7,7,8,8,9,9,10,10,11,11,12,12,13,13,14,14],"right_children":[2,4,6,8,10,12,14,16,18,20,22,24,26,28,30,-1,-1,-1,-1,-1,-1,-1,-1,-1,-1,-1,-1,-1,-1,-1,-1],"split_conditions":[-9.929215E-1,2.793624E-1,2.4474049E0,-1.1387058E0,1.4806494E-1,-6.833655E-2,6.3544345E-1,-6.327378E-1,-9.8504925E-1,-1.3819888E0,-3.6156354E0,-1.6409154E0,-6.1163135E-2,1.2594022E0,-6.932866E-2,1.0163615E-1,-7.143413E-2,2.3245893E-1,-1.1016867E-1,1.0644299E-1,-1.1478728E-1,7.924555E-2,-1.6319165E-1,5.246801E-2,-1.04121685E-1,3.091068E-1,-1.2508402E-2,-8.431984E-2,7.6475315E-2,-9.847217E-2,1.0799432E-1],"split_indices":[9,16,3,9,15,17,10,15,12,13,13,18,17,4,27,0,0,0,0,0,0,0,0,0,0,0,0,0,0,0,0],"split_type":[0,0,0,0,0,0,0,0,0,0,0,0,0,0,0,0,0,0,0,0,0,0,0,0,0,0,0,0,0,0,0],"sum_hessian":[1.3120846E4,4.033827E3,9.08702E3,2.5123943E3,1.5214327E3,6.3619473E3,2.7250718E3,2.0204832E3,4.91911E2,8.3763385E2,6.837988E2,2.212135E3,4.1498125E3,1.3816202E3,1.3434514E3,1.8424286E3,1.7805463E2,4.2900452E2,6.2906506E1,6.805356E2,1.570983E2,2.575922E2,4.2620663E2,2.5413344E2,1.9580016E3,1.3002167E2,4.0197908E3,6.638199E2,7.1780035E2,6.975576E1,1.2736957E3],"tree_param":{"num_deleted":"0","num_feature":"29","num_nodes":"31","size_leaf_vector":"1"}},{"base_weights":[1.5184854E-1,7.64994E-1,-7.474931E-2,9.1230047E-1,-4.3869624E-1,-7.908735E-1,1.4252126E-1,1.0595115E0,-4.6497226E-2,7.5269526E-1,-1.1051546E0,-9.874533E-1,1.5066707E0,-5.2011365E-1,3.0611357E-1,1.1331872E-1,-9.2466325E-2,-8.95276E-2,1.1807462E-1,-1.08432285E-1,1.0781797E-1,-1.06167495E-1,-1.3231578E-1,-1.0593756E-1,6.0211867E-2,-1.0403793E-1,1.9701332E-1,-9.69696E-2,6.620588E-2,3.965875E-2,-1.1647183E-1],"categories":[],"categories_nodes":[],"categories_segments":[],"categories_sizes":[],"default_left":[0,0,0,0,0,0,0,0,0,0,0,0,0,0,0,0,0,0,0,0,0,0,0,0,0,0,0,0,0,0,0],"id":38,"left_children":[1,3,5,7,9,11,13,15,17,19,21,23,25,27,29,-1,-1,-1,-1,-1,-1,-1,-1,-1,-1,-1,-1,-1,-1,-1,-1],"loss_changes":[1.7829479E3,6.143915E2,1.4581002E3,4.3556055E2,3.0116058E2,9.8670776E2,7.7958704E2,3.920786E2,4.2985333E2,8.265365E1,8.9819336E-1,2.3043848E2,2.0547366E2,7.574839E2,7.679073E2,0E0,0E0,0E0,0E0,0E0,0E0,0E0,0E0,0E0,0E0,0E0,0E0,0E0,0E0,0E0,0E0],"parents":[2147483647,0,0,1,1,2,2,3,3,4,4,5,5,6,6,7,7,8,8,9,9,10,10,11,11,12,12,13,13,14,14],"right_children":[2,4,6,8,10,12,14,16,18,20,22,24,26,28,30,-1,-1,-1,-1,-1,-1,-1,-1,-1,-1,-1,-1,-1,-1,-1,-1],"split_conditions":[-8.945301E-1,5.767415E-1,3.1228277E-1,5.7827985E-1,-9.3580073E-1,1.2022438E0,-2.7516967E-1,8.482911E-1,9.7542316E-1,5.3182524E-1,1.2735875E0,1.2716427E0,1.3148257E0,2.1930782E-1,1.2776982E0,1.1331872E-1,-9.2466325E-2,-8.95276E-2,1.1807462E-1,-1.08432285E-1,1.0781797E-1,-1.06167495E-1,-1.3231578E-1,-1.0593756E-1,6.0211867E-2,-1.0403793E-1,1.9701332E-1,-9.69696E-2,6.620588E-2,3.965875E-2,-1.1647183E-1],"split_indices":[15,9,3,16,17,25,4,17,22,20,3,24,11,27,2,0,0,0,0,0,0,0,0,0,0,0,0,0,0,0,0],"split_type":[0,0,0,0,0,0,0,0,0,0,0,0,0,0,0,0,0,0,0,0,0,0,0,0,0,0,0,0,0,0,0],"sum_hessian":[1.2831325E4,3.4617869E3,9.369539E3,3.0845454E3,3.7724164E2,2.180376E3,7.1891626E3,2.6738975E3,4.106478E2,1.3527983E2,2.4196179E2,2.0090502E3,1.7132576E2,1.4230168E3,5.766146E3,2.5785796E3,9.531792E1,2.4291492E2,1.6773286E2,2.0010448E1,1.1526938E2,2.0662204E2,3.5339752E1,1.922402E3,8.664819E1,2.6183624E1,1.4514214E2,1.0310764E3,3.9194046E2,5.4326997E3,3.3344638E2],"tree_param":{"num_deleted":"0","num_feature":"29","num_nodes":"31","size_leaf_vector":"1"}},{"base_weights":[2.0151426E-1,-6.624984E-2,5.366142E-1,1.5629673E-1,-9.030191E-1,1.2414861E0,3.291696E-1,4.3267345E-1,-5.2242863E-1,1.1017305E0,-1.085361E0,1.4837309E0,-2.9956692E-1,-2.5941738E-1,8.833577E-1,-6.4203195E-2,5.880166E-2,4.5479354E-2,-1.155576E-1,-1.06134795E-1,1.3335328E-1,6.761483E-2,-1.1065874E-1,6.942806E-2,1.8013762E-1,9.6702866E-2,-1.3626292E-1,3.1014541E-2,-1.056808E-1,9.7405314E-2,-4.7752477E-2],"categories":[],"categories_nodes":[],"categories_segments":[],"categories_sizes":[],"default_left":[0,0,0,0,0,0,0,0,0,0,0,0,0,0,0,0,0,0,0,0,0,0,0,0,0,0,0,0,0,0,0],"id":39,"left_children":[1,3,5,7,9,11,13,15,17,19,21,23,25,27,29,-1,-1,-1,-1,-1,-1,-1,-1,-1,-1,-1,-1,-1,-1,-1,-1],"loss_changes":[1.1328849E3,1.3071609E3,8.195637E2,1.0403811E3,5.402606E2,4.763192E2,1.4139248E3,6.5832104E2,9.935842E2,6.3310013E1,5.1308838E1,2.7502832E2,2.355947E2,9.5522565E2,2.7600745E2,0E0,0E0,0E0,0E0,0E0,0E0,0E0,0E0,0E0,0E0,0E0,0E0,0E0,0E0,0E0,0E0],"parents":[2147483647,0,0,1,1,2,2,3,3,4,4,5,5,6,6,7,7,8,8,9,9,10,10,11,11,12,12,13,13,14,14],"right_children":[2,4,6,8,10,12,14,16,18,20,22,24,26,28,30,-1,-1,-1,-1,-1,-1,-1,-1,-1,-1,-1,-1,-1,-1,-1,-1],"split_conditions":[6.1035293E-1,1.1072023E-1,-1.3385137E0,-2.9534863E-2,-1.8650155E0,-5.309359E-2,2.0353515E0,-3.4309378E-1,-1.1423459E0,2.0712814E0,-3.6156354E0,-1.7331551E-1,-1.8875681E0,-8.069166E-1,9.1830873E-1,-6.4203195E-2,5.880166E-2,4.5479354E-2,-1.155576E-1,-1.06134795E-1,1.3335328E-1,6.761483E-2,-1.1065874E-1,6.942806E-2,1.8013762E-1,9.6702866E-2,-1.3626292E-1,3.1014541E-2,-1.056808E-1,9.7405314E-2,-4.7752477E-2],"split_indices":[10,7,12,25,24,0,3,17,8,9,13,28,9,13,9,0,0,0,0,0,0,0,0,0,0,0,0,0,0,0,0],"split_type":[0,0,0,0,0,0,0,0,0,0,0,0,0,0,0,0,0,0,0,0,0,0,0,0,0,0,0,0,0,0,0],"sum_hessian":[1.262441E4,7.0176816E3,5.6067285E3,5.5440127E3,1.4736687E3,1.273737E3,4.3329917E3,3.9400063E3,1.6040065E3,1.2244213E2,1.3512266E3,1.1007437E3,1.7299348E2,2.1015396E3,2.231452E3,4.9718866E2,3.4428176E3,6.307564E2,9.732501E2,1.1504879E1,1.10937256E2,1.572127E1,1.3355052E3,3.167367E2,7.840069E2,7.898107E1,9.401241E1,1.2262562E3,8.752834E2,2.092296E3,1.3915588E2],"tree_param":{"num_deleted":"0","num_feature":"29","num_nodes":"31","size_leaf_vector":"1"}},{"base_weights":[8.841391E-2,-2.6935303E-1,4.4015905E-1,3.312934E-1,-6.752934E-1,-3.2598376E-2,8.5073996E-1,7.234873E-1,-1.0763466E0,5.070711E-1,-8.9528316E-1,1.0885192E0,-3.707924E-1,8.8523614E-1,-1.3438743E-1,-1.0170168E-1,9.8022066E-2,5.8927424E-2,-1.3903382E-1,-1.6849636E-1,1.1759438E-1,1.3745159E-2,-1.0995226E-1,1.5318349E-1,-9.877791E-2,2.9462641E-2,-1.0689881E-1,9.535465E-2,4.785685E-3],"categories":[],"categories_nodes":[],"categories_segments":[],"categories_sizes":[],"default_left":[0,0,0,0,0,0,0,0,0,0,0,0,0,0,0,0,0,0,0,0,0,0,0,0,0,0,0,0,0],"id":40,"left_children":[1,3,5,7,9,11,13,15,17,19,21,23,25,27,-1,-1,-1,-1,-1,-1,-1,-1,-1,-1,-1,-1,-1,-1,-1],"loss_changes":[1.4225472E3,1.3666926E3,1.1064188E3,1.2488833E3,8.70381E2,1.00529254E3,2.321394E2,7.9135114E2,2.5867413E2,7.7216235E2,5.95E2,5.671027E2,9.466294E2,1.7178882E2,0E0,0E0,0E0,0E0,0E0,0E0,0E0,0E0,0E0,0E0,0E0,0E0,0E0,0E0,0E0],"parents":[2147483647,0,0,1,1,2,2,3,3,4,4,5,5,6,6,7,7,8,8,9,9,10,10,11,11,12,12,13,13],"right_children":[2,4,6,8,10,12,14,16,18,20,22,24,26,28,-1,-1,-1,-1,-1,-1,-1,-1,-1,-1,-1,-1,-1,-1,-1],"split_conditions":[4.8712164E-1,-2.381795E-1,1.7272661E0,4.8725647E-1,-1.7859976E0,-5.858062E-1,1.5257049E0,-9.8660715E-2,-1.9243426E0,1.5048262E-1,-7.8856397E-1,-7.9407316E-1,-1.0416901E0,9.1830873E-1,-1.3438743E-1,-1.0170168E-1,9.8022066E-2,5.8927424E-2,-1.3903382E-1,-1.6849636E-1,1.1759438E-1,1.3745159E-2,-1.0995226E-1,1.5318349E-1,-9.877791E-2,2.9462641E-2,-1.0689881E-1,9.535465E-2,4.785685E-3],"split_indices":[10,23,3,4,13,25,13,24,14,19,16,1,13,9,0,0,0,0,0,0,0,0,0,0,0,0,0,0,0],"split_type":[0,0,0,0,0,0,0,0,0,0,0,0,0,0,0,0,0,0,0,0,0,0,0,0,0,0,0,0,0],"sum_hessian":[1.130222E4,5.603264E3,5.698956E3,2.259781E3,3.343483E3,2.6493364E3,3.0496196E3,1.7677422E3,4.9203885E2,5.242933E2,2.8191897E3,6.13467E2,2.0358695E3,3.0030132E3,4.6606453E1,2.2685234E2,1.5408898E3,7.790453E1,4.141343E2,1.2222325E2,4.0207004E2,4.6553632E2,2.3536533E3,5.0574606E2,1.07720894E2,1.0426986E3,9.931709E2,2.7763872E3,2.2662611E2],"tree_param":{"num_deleted":"0","num_feature":"29","num_nodes":"29","size_leaf_vector":"1"}},{"base_weights":[1.328458E-1,9.220496E-1,5.673985E-3,9.9640006E-1,1.5994342E-1,9.66753E-2,-1.1213948E0,9.993149E-1,-7.6027334E-2,-2.0228302E0,8.0143654E-1,1.6662209E-1,-1.1534461E0,-1.364455E0,-1.0891851E0,1.0020404E-1,5.4357674E-2,-2.4312675E-1,-1.01655364E-1,9.005573E-2,-3.887153E-1,2.9089648E-2,-5.017097E-2,-1.5150991E-1,7.548491E-2,-1.1028399E-1,-1.5081277E-1,-1.0728478E-1,-1.4915113E-1],"categories":[],"categories_nodes":[],"categories_segments":[],"categories_sizes":[],"default_left":[0,0,0,0,0,0,0,0,0,0,0,0,0,0,0,0,0,0,0,0,0,0,0,0,0,0,0,0,0],"id":41,"left_children":[1,3,5,7,9,11,13,15,-1,17,19,21,23,25,27,-1,-1,-1,-1,-1,-1,-1,-1,-1,-1,-1,-1,-1,-1],"loss_changes":[1.105785E3,8.647839E1,9.734212E2,7.89209E0,1.9359372E2,7.680805E2,4.0649414E0,1.1832275E0,0E0,1.0443878E1,5.307685E1,6.909474E2,3.2236542E2,1.3065338E0,2.5476685E0,0E0,0E0,0E0,0E0,0E0,0E0,0E0,0E0,0E0,0E0,0E0,0E0,0E0,0E0],"parents":[2147483647,0,0,1,1,2,2,3,3,4,4,5,5,6,6,7,7,9,9,10,10,11,11,12,12,13,13,14,14],"right_children":[2,4,6,8,10,12,14,16,-1,18,20,22,24,26,28,-1,-1,-1,-1,-1,-1,-1,-1,-1,-1,-1,-1,-1,-1],"split_conditions":[-3.6156354E0,6.572287E-1,1.028116E0,4.5401925E-1,3.5906222E0,1.347566E0,-9.853448E-1,-4.457459E-2,-7.6027334E-2,4.223826E-1,1.8975968E0,2.260544E-1,2.1187294E0,7.413282E-1,1.826473E0,1.0020404E-1,5.4357674E-2,-2.4312675E-1,-1.01655364E-1,9.005573E-2,-3.887153E-1,2.9089648E-2,-5.017097E-2,-1.5150991E-1,7.548491E-2,-1.1028399E-1,-1.5081277E-1,-1.0728478E-1,-1.4915113E-1],"split_indices":[13,6,8,9,3,17,19,9,0,9,0,7,15,3,16,0,0,0,0,0,0,0,0,0,0,0,0,0,0],"split_type":[0,0,0,0,0,0,0,0,0,0,0,0,0,0,0,0,0,0,0,0,0,0,0,0,0,0,0,0,0],"sum_hessian":[1.1016745E4,1.5280029E3,9.488742E3,1.3919027E3,1.361003E2,8.780689E3,7.080526E2,1.3900273E3,1.8753406E0,3.0424206E1,1.05676094E2,8.316246E3,4.6444388E2,7.801017E1,6.300424E2,1.3805721E3,9.455176E0,2.0633268E1,9.790937E0,1.04279465E2,1.3966297E0,7.0128003E3,1.3034453E3,3.906209E2,7.382297E1,3.0729874E1,4.7280293E1,6.089799E2,2.106247E1],"tree_param":{"num_deleted":"0","num_feature":"29","num_nodes":"29","size_leaf_vector":"1"}},{"base_weights":[1.6305779E-1,7.0535165E-1,-3.0268747E-3,8.398421E-1,-9.099113E-1,3.3293492E-1,-2.8720093E-1,1.0124005E0,-3.4528753E-1,-1.0724282E-1,9.469449E-2,5.256068E-1,-4.4706285E-1,-1.02387145E-1,-2.4611095E-2,1.1203009E-1,4.8563472E-4,1.0372745E-1,-8.685648E-2,-9.8471895E-2,6.304466E-2,5.2993156E-2,-1.1413667E-1,-6.355667E-2,3.0642778E-2],"categories":[],"categories_nodes":[],"categories_segments":[],"categories_sizes":[],"default_left":[0,0,0,0,0,0,0,0,0,0,0,0,0,0,0,0,0,0,0,0,0,0,0,0,0],"id":42,"left_children":[1,3,5,7,9,11,13,15,17,-1,-1,19,21,-1,23,-1,-1,-1,-1,-1,-1,-1,-1,-1,-1],"loss_changes":[1.0064442E3,5.699104E2,8.1690125E2,4.950603E2,6.192917E1,5.8949243E2,8.966784E2,2.295852E2,2.2387468E2,0E0,0E0,4.9856573E2,5.2782263E2,0E0,6.915658E2,0E0,0E0,0E0,0E0,0E0,0E0,0E0,0E0,0E0,0E0],"parents":[2147483647,0,0,1,1,2,2,3,3,4,4,5,5,6,6,7,7,8,8,11,11,12,12,14,14],"right_children":[2,4,6,8,10,12,14,16,18,-1,-1,20,22,-1,24,-1,-1,-1,-1,-1,-1,-1,-1,-1,-1],"split_conditions":[-8.945301E-1,8.482911E-1,-8.069166E-1,5.7827985E-1,2.7120953E0,4.70078E-2,3.8273147E-1,4.434105E-1,-2.3072166E0,-1.0724282E-1,9.469449E-2,-1.9002722E-1,-6.842839E-1,-1.02387145E-1,9.92398E-3,1.1203009E-1,4.8563472E-4,1.0372745E-1,-8.685648E-2,-9.8471895E-2,6.304466E-2,5.2993156E-2,-1.1413667E-1,-6.355667E-2,3.0642778E-2],"split_indices":[15,17,13,16,10,26,3,4,5,0,0,26,6,0,27,0,0,0,0,0,0,0,0,0,0],"split_type":[0,0,0,0,0,0,0,0,0,0,0,0,0,0,0,0,0,0,0,0,0,0,0,0,0],"sum_hessian":[1.1173409E4,2.6189282E3,8.55448E3,2.418074E3,2.0085419E2,3.919968E3,4.6345127E3,2.1108706E3,3.072033E2,1.8507811E2,1.5776075E1,3.14374E3,7.762279E2,1.2171149E3,3.4173977E3,1.9065785E3,2.0429214E2,8.407766E1,2.2312566E2,2.0351416E2,2.9402258E3,3.2256506E2,4.5366287E2,1.2006301E3,2.2167676E3],"tree_param":{"num_deleted":"0","num_feature":"29","num_nodes":"25","size_leaf_vector":"1"}},{"base_weights":[3.8945504E-2,4.9702254E-1,-2.5701743E-1,7.860442E-1,-3.3923665E-1,4.3737504E-1,-5.531633E-1,-1.0201096E-1,9.3475604E-1,8.157383E-1,-8.0713505E-1,7.504859E-1,-6.701793E-1,4.191229E-1,-7.782937E-1,1.07562356E-1,-3.104125E-2,9.10607E-2,-2.2198498E-1,-1.2932466E-1,6.1279573E-2,5.148706E-2,1.6406563E-1,-1.0780751E-1,4.8372608E-2,-1.1659638E-1,7.6311395E-2,-9.0029195E-2,1.1962264E-1],"categories":[],"categories_nodes":[],"categories_segments":[],"categories_sizes":[],"default_left":[0,0,0,0,0,0,0,0,0,0,0,0,0,0,0,0,0,0,0,0,0,0,0,0,0,0,0,0,0],"id":43,"left_children":[1,3,5,7,9,11,13,-1,15,17,19,21,23,25,27,-1,-1,-1,-1,-1,-1,-1,-1,-1,-1,-1,-1,-1,-1],"loss_changes":[1.3305331E3,9.3129065E2,1.2262999E3,7.699347E2,5.357026E2,6.1885254E2,9.152993E2,0E0,4.6439722E2,8.43696E1,4.8749802E2,2.908094E2,1.8573813E2,4.297621E2,8.1876685E2,0E0,0E0,0E0,0E0,0E0,0E0,0E0,0E0,0E0,0E0,0E0,0E0,0E0,0E0],"parents":[2147483647,0,0,1,1,2,2,3,3,4,4,5,5,6,6,8,8,9,9,10,10,11,11,12,12,13,13,14,14],"right_children":[2,4,6,8,10,12,14,-1,16,18,20,22,24,26,28,-1,-1,-1,-1,-1,-1,-1,-1,-1,-1,-1,-1,-1,-1],"split_conditions":[-7.0378727E-1,1.1574765E0,-6.842839E-1,-4.8604634E-1,-3.6156354E0,-2.1577519E-1,-1.4724427E0,-1.0201096E-1,1.9558007E-1,6.148254E-1,7.182577E-1,-2.2625017E-1,1.0944848E0,1.6757084E-2,2.2113247E0,1.07562356E-1,-3.104125E-2,9.10607E-2,-2.2198498E-1,-1.2932466E-1,6.1279573E-2,5.148706E-2,1.6406563E-1,-1.0780751E-1,4.8372608E-2,-1.1659638E-1,7.6311395E-2,-9.0029195E-2,1.1962264E-1],"split_indices":[9,16,6,3,13,28,18,0,5,14,28,28,20,27,10,0,0,0,0,0,0,0,0,0,0,0,0,0,0],"split_type":[0,0,0,0,0,0,0,0,0,0,0,0,0,0,0,0,0,0,0,0,0,0,0,0,0,0,0,0,0],"sum_hessian":[9.812145E3,3.8510293E3,5.961115E3,2.86196E3,9.890691E2,1.7820798E3,4.179035E3,2.1727127E2,2.6446887E3,2.849489E2,7.041202E2,1.3895654E3,3.9251437E2,7.855529E2,3.3934824E3,2.3760227E3,2.686662E2,2.7699234E2,7.9565845E0,5.2460986E2,1.7951033E2,1.0999917E3,2.8957367E2,2.900499E2,1.0246447E2,1.3965282E2,6.459001E2,3.1965251E3,1.9695729E2],"tree_param":{"num_deleted":"0","num_feature":"29","num_nodes":"29","size_leaf_vector":"1"}},{"base_weights":[1.4045309E-1,-6.434685E-1,2.7299505E-1,-8.220071E-1,7.467436E-1,4.3230775E-1,-3.740328E-1,-9.96264E-1,7.596399E-1,-1.0795962E-1,1.3401176E0,8.450243E-1,1.5554084E-1,-9.959271E-1,6.4541745E-1,7.872169E-2,-1.031565E-1,-1.0823876E-1,1.19531095E-1,-9.979591E-2,1.4142655E-1,1.0795563E-1,-1.8028451E-2,4.2609926E-2,-6.2903814E-2,9.5032476E-2,-1.1319075E-1,-8.5614055E-2,1.0284275E-1],"categories":[],"categories_nodes":[],"categories_segments":[],"categories_sizes":[],"default_left":[0,0,0,0,0,0,0,0,0,0,0,0,0,0,0,0,0,0,0,0,0,0,0,0,0,0,0,0,0],"id":44,"left_children":[1,3,5,7,9,11,13,15,17,-1,19,21,23,25,27,-1,-1,-1,-1,-1,-1,-1,-1,-1,-1,-1,-1,-1,-1],"loss_changes":[1.05006E3,3.6340387E2,8.911695E2,3.578885E2,1.822875E2,7.922014E2,1.0837185E3,7.432324E1,1.049475E2,0E0,2.3324188E1,6.696991E2,8.819168E2,2.8199316E2,3.7348856E2,0E0,0E0,0E0,0E0,0E0,0E0,0E0,0E0,0E0,0E0,0E0,0E0,0E0,0E0],"parents":[2147483647,0,0,1,1,2,2,3,3,4,4,5,5,6,6,7,7,8,8,10,10,11,11,12,12,13,13,14,14],"right_children":[2,4,6,8,10,12,14,16,18,-1,20,22,24,26,28,-1,-1,-1,-1,-1,-1,-1,-1,-1,-1,-1,-1,-1,-1],"split_conditions":[-2.1900374E-2,1.8243738E0,3.4057415E-1,3.0202103E0,1.327541E0,-6.0286105E-1,7.2650313E-1,-3.6156354E0,8.8129526E-1,-1.0795962E-1,1.287654E-1,5.3055036E-1,3.494093E-2,-1.8650155E0,5.56398E-2,7.872169E-2,-1.031565E-1,-1.0823876E-1,1.19531095E-1,-9.979591E-2,1.4142655E-1,1.0795563E-1,-1.8028451E-2,4.2609926E-2,-6.2903814E-2,9.5032476E-2,-1.1319075E-1,-8.5614055E-2,1.0284275E-1],"split_indices":[3,15,13,6,10,11,19,13,14,0,22,17,26,24,18,0,0,0,0,0,0,0,0,0,0,0,0,0,0],"split_type":[0,0,0,0,0,0,0,0,0,0,0,0,0,0,0,0,0,0,0,0,0,0,0,0,0,0,0,0,0],"sum_hessian":[1.0103514E4,1.4606459E3,8.642868E3,1.2947728E3,1.6587306E2,6.93552E3,1.7073477E3,1.1666122E3,1.2816058E2,4.0475254E1,1.25397804E2,2.7831765E3,4.1523438E3,1.0604596E3,6.468881E2,2.2229517E1,1.1443827E3,2.4230223E1,1.0393036E2,3.4715638E0,1.2192624E2,2.2650173E3,5.181592E2,3.087939E3,1.0644045E3,6.8862305E1,9.915973E2,1.3121921E2,5.156689E2],"tree_param":{"num_deleted":"0","num_feature":"29","num_nodes":"29","size_leaf_vector":"1"}},{"base_weights":[1.6231446E-1,5.595494E-1,-3.6272693E-2,8.524345E-1,1.858506E-3,-6.525211E-1,1.9871591E-1,-1.1353381E0,9.730833E-1,-1.4095174E0,3.5365883E-1,1.5729876E-1,-1.1183099E0,-6.5430427E-1,3.5824013E-1,-1.03333846E-1,-1.2723647E-1,1.0288191E-1,-1.0276096E-1,-1.4984068E-1,8.559878E-2,-8.131843E-2,8.784444E-2,7.120059E-2,-1.0628104E-1,-1.0415526E-1,-1.2022366E-1,5.6950487E-2,-1.1604639E-1,-1.16935134E-1,4.7879547E-2],"categories":[],"categories_nodes":[],"categories_segments":[],"categories_sizes":[],"default_left":[0,0,0,0,0,0,0,0,0,0,0,0,0,0,0,0,0,0,0,0,0,0,0,0,0,0,0,0,0,0,0],"id":45,"left_children":[1,3,5,7,9,11,13,15,17,19,21,23,25,27,29,-1,-1,-1,-1,-1,-1,-1,-1,-1,-1,-1,-1,-1,-1,-1,-1],"loss_changes":[7.8824524E2,5.439812E2,9.649497E2,5.247821E2,5.7039594E2,6.940369E2,6.566879E2,4.3807983E-1,2.306781E2,4.7441254E1,5.6380304E2,4.5594983E2,6.2717285E0,4.7167505E2,7.4911884E2,0E0,0E0,0E0,0E0,0E0,0E0,0E0,0E0,0E0,0E0,0E0,0E0,0E0,0E0,0E0,0E0],"parents":[2147483647,0,0,1,1,2,2,3,3,4,4,5,5,6,6,7,7,8,8,9,9,10,10,11,11,12,12,13,13,14,14],"right_children":[2,4,6,8,10,12,14,16,18,20,22,24,26,28,30,-1,-1,-1,-1,-1,-1,-1,-1,-1,-1,-1,-1,-1,-1,-1,-1],"split_conditions":[-8.506472E-1,9.888244E-1,-1.6426414E-2,-8.085281E-1,7.019944E-1,-7.1539426E-1,-5.256761E-1,2.8819078E-1,1.1615784E0,2.7120953E0,-2.8629547E-1,2.9025842E-2,7.754518E-1,-1.5220747E0,-2.678388E-1,-1.03333846E-1,-1.2723647E-1,1.0288191E-1,-1.0276096E-1,-1.4984068E-1,8.559878E-2,-8.131843E-2,8.784444E-2,7.120059E-2,-1.0628104E-1,-1.0415526E-1,-1.2022366E-1,5.6950487E-2,